svm_type c_svc
kernel_type linear
nr_class 20
total_sv 323
rho 0.0583614 0.14559 -0.342545 0.208601 0.23436 0.131247 0.205875 -0.339163 -0.445908 -0.262325 0.57801 -0.175516 0.238452 0.181082 0.148077 -0.10762 0.069671 -0.339133 -0.136867 0.0240233 -0.502139 0.34513 -0.017509 -0.0354764 -0.157943 -0.190357 -0.544463 -0.380197 0.387185 -0.245508 0.216328 0.0381321 0.369473 -0.69303 -0.201528 -0.459494 -0.266792 -0.39087 0.225866 -0.0574309 -0.309383 -0.121829 -0.134242 -0.321449 -0.308567 0.327431 0.0515208 0.00648852 0.0443442 0.152847 -0.630026 -0.190721 -0.436067 -0.430769 0.294597 0.359492 0.416372 0.494109 0.360404 -0.0805515 0.122005 0.572755 0.394556 0.427587 0.280857 0.214291 0.0915533 0.262672 0.0966011 0.307191 -0.112853 -0.327906 -0.157982 -0.334412 -0.698724 -0.537487 0.703905 -0.19789 -0.0233026 -0.21485 -0.211921 -0.398962 -0.199905 -0.563703 -0.249544 0.0987069 0.031786 -0.155039 -0.519937 -0.425349 0.283829 -0.0385172 0.0440525 -0.121075 0.329545 -0.351928 -0.0635825 -0.49581 -0.381099 0.0801673 -0.028495 -0.475816 -0.21544 0.451017 -0.0469884 0.10869 -0.0367064 -0.0745025 -0.49054 0.0596668 -0.405203 -0.365612 -0.472436 -0.637442 -0.489904 0.299937 -0.119302 0.272252 0.125533 0.0465376 -0.402975 -0.0710633 -0.305093 -0.0511081 -0.124897 -0.0874846 1.02221 0.0799765 0.292813 0.16259 0.243565 -0.188342 0.209298 -0.121006 0.0675051 0.0913676 0.74386 0.393656 0.486587 0.227741 0.700624 0.141945 0.615706 0.0670872 0.266789 0.693816 0.286531 0.313384 0.166465 0.399067 -0.106483 0.418974 0.208582 0.161295 -0.192574 -0.14153 -0.210715 -0.157376 -0.717375 -0.438035 -0.496866 -0.389391 -0.0850049 -0.243625 0.060156 -0.140818 -0.0764775 -0.302142 0.0156869 -0.466354 0.0705702 -0.679082 -0.167628 -0.362307 -0.343489 -0.0262035 -0.344693 0.132267 -0.0782607 -0.00357218 -0.293809 -0.0256992 -0.435168 -0.300633 0.109663 0.0215959 0.461622 -0.732727 -0.284707 -0.0571062
label 0 1 2 3 4 5 6 7 8 9 10 11 12 13 14 15 16 17 18 19
probA -2.51 -3.09561 -3.0796 -3.18585 -2.74716 -3.12704 -3.35854 -3.13345 -3.08673 -3.00069 -3.30651 -2.94231 -2.94773 -3.00098 -3.16348 -3.28332 -3.18664 -3.05515 -2.65685 -3.21891 -2.7767 -3.73177 -2.82613 -3.57647 -3.20191 -3.19208 -2.96668 -2.92335 -3.2483 -3.08063 -3.37676 -3.00882 -2.77829 -3.21408 -3.27858 -3.02026 -2.71643 -2.81646 -3.67333 -2.67481 -3.49884 -3.55354 -3.85316 -2.95567 -2.93669 -3.18654 -3.13435 -3.31088 -3.18226 -3.23808 -3.17649 -3.13911 -3.17988 -2.61714 -2.87897 -2.51762 -2.69546 -3.04965 -2.95666 -2.90083 -3.03718 -3.13349 -3.46991 -3.03641 -3.0379 -3.12696 -3.03939 -2.95899 -3.10606 -2.68137 -2.77838 -2.35628 -3.25937 -2.09777 -3.0846 -2.94103 -4.06093 -2.95626 -3.11253 -3.07016 -3.41888 -3.06204 -3.06689 -3.20147 -2.62147 -2.50123 -2.43585 -2.64108 -3.10438 -3.01842 -2.55603 -3.15185 -2.60098 -3.19062 -2.64833 -2.87907 -2.90004 -3.07986 -2.36064 -3.30206 -2.54729 -2.97878 -2.94727 -3.67054 -3.06926 -3.09342 -3.08434 -3.10806 -3.11918 -3.28455 -3.09184 -2.63417 -3.38639 -3.10516 -3.01258 -3.72466 -3.03708 -3.1415 -3.07621 -3.22391 -3.12833 -3.28917 -3.13743 -2.55111 -2.99289 -3.00405 -3.02482 -3.14371 -2.97337 -3.0172 -3.0038 -3.0542 -3.03674 -3.08842 -2.57275 -3.20299 -3.06677 -2.94626 -2.92094 -3.05152 -2.97206 -2.94064 -3.07145 -2.96401 -2.90016 -3.11405 -2.94882 -2.83006 -2.97991 -3.00472 -3.20634 -3.01434 -2.99372 -2.9166 -1.22534 -3.05185 -3.07741 -3.29463 -3.33315 -3.19133 -3.24229 -2.62785 -2.5398 -3.31409 -3.20072 -3.00492 -3.13866 -3.00332 -2.75537 -1.79856 -3.19845 -3.06722 -2.74059 -2.97449 -2.83036 -2.191 -2.97182 -3.07226 -3.08703 -2.83022 -3.10413 -3.23209 -3.05239 -2.61903 -1.94167 -3.19029 -2.67501 -2.66435 -2.53181 -2.62815
probB 0.412537 -0.110943 0.410363 0.0516283 0.460628 0.0202955 0.29632 -0.0778795 -0.0402455 0.0636985 0.067022 -6.74063e-05 0.043805 -0.0393444 -0.0764492 0.240376 -0.0136083 0.0114929 0.276274 0.360738 0.203858 -1.06942 0.317679 0.663112 0.303229 -0.0472774 0.039472 -0.0258175 0.105834 0.148128 0.455011 0.255316 -0.409118 -0.0414002 -0.131225 0.148025 0.347914 0.443681 -0.424302 0.0305745 0.82469 0.189495 -0.603573 0.0675416 -0.045346 -0.314491 -0.210618 0.48086 -0.0823981 -0.0937835 0.134433 -0.0494133 -0.15424 0.286369 -0.429984 0.101092 -0.35441 -0.396192 -0.476572 0.101814 0.0268944 -0.0615788 0.359237 -0.0844834 -0.121131 -0.181705 -0.283318 -0.483189 0.0404452 0.0809218 0.368543 0.388172 0.332825 0.301704 0.0381847 -0.126746 -0.685065 0.0441755 0.0840169 0.172434 0.00161877 0.27625 -0.045801 -0.249538 0.291311 -0.381761 -0.0215432 -0.39342 -0.109508 -0.354296 -0.149247 0.0561769 0.279227 -0.286744 -0.169144 -0.337378 -0.171102 -0.276755 -0.0834245 -0.494004 -0.31135 -0.121626 -0.242925 -1.32245 -0.100265 0.30775 0.0721099 0.277032 -0.00159276 0.132908 -0.212444 0.279075 -0.534719 -0.296389 -0.173841 -0.875717 -0.0720626 0.172247 0.0763491 -0.150036 -0.252766 -0.472579 -0.0683457 0.108678 0.0997621 0.0448086 -0.574278 0.336406 0.0413008 0.0190828 0.00785676 0.356122 0.0442902 0.175451 0.292314 0.262918 0.0217712 -0.0623182 0.278079 -0.0220622 -0.0278848 -0.0444322 0.0747882 -0.0697145 0.291546 -0.142186 -0.134951 -0.0609678 0.0202709 0.130125 0.200641 -0.00920238 0.112413 0.37548 0.0388877 0.131757 0.0651265 -0.454711 0.143872 -0.158305 0.0407109 0.359466 0.664735 -0.212968 0.343781 0.0559776 0.0228714 0.143612 0.27576 0.485987 -0.618936 -0.173852 -0.44829 0.015302 0.197645 0.495053 0.000119683 0.0900057 -0.0555497 0.348239 0.039593 -0.334099 -0.132179 0.36227 0.882391 -0.0271562 0.299366 -0.437179 0.261413 0.326521
nr_sv 18 18 14 15 20 15 16 15 18 12 15 16 17 17 20 14 19 19 15 10
SV
0 0 0 0 0 0 0 0 0 0 0.5327693531304231 0 0 0 0 0 0 0 0 0:0.022787904 1:-0.0071897563 2:-0.03141603 3:0.032964505 4:-0.015597089 5:0.07273123 6:-0.09825032 7:0.04648181 8:-0.023072418 9:0.03155428 10:0.050440606 11:0.06288531 12:-0.0011524648 13:-0.06836483 14:0.014632652 15:-0.02600178 16:-0.0029329255 17:0.038746182 18:0.0035152335 19:-0.0658975 20:-0.07911218 21:0.026157947 22:0.07312566 23:-0.057609055 24:-0.02390228 25:0.015905064 26:0.0010819081 27:-0.018946206 28:-0.061545648 29:0.012682202 30:-0.010766673 31:0.055459004 32:0.028400844 33:0.020474536 34:-0.011336247 35:0.01803866 36:0.02951636 37:-0.012537506 38:-0.06480038 39:0.03380591 40:0.03226056 41:-0.0017087739 42:0.00243723 43:0.007818822 44:0.028469514 45:0.009747803 46:0.02190296 47:0.024076711 48:-0.10251199 49:-0.046807315 50:0.018712005 51:-0.01329946 52:0.023814308 53:0.0018791376 54:-0.077144936 55:0.077214874 56:-0.011490306 57:0.06102669 58:-0.03513908 59:-0.0051395316 60:-0.035448592 61:0.08611927 62:-0.10129985 63:-0.024578216 64:-0.014870681 65:0.048701663 66:0.008654901 67:-0.026159845 68:0.0026234444 69:-0.0027669622 70:0.1074172 71:0.04841101 72:-0.05272583 73:-0.0070994208 74:0.014410228 75:-0.040886145 76:-0.09613223 77:0.023286318 78:-0.010671386 79:-0.014594911 80:0.06941767 81:0.04400811 82:-0.0031074423 83:-0.0450713 84:0.01332241 85:0.041089125 86:-0.026649034 87:0.07388072 88:-0.019121507 89:0.027694108 90:0.0032849342 91:-0.007919413 92:0.025322307 93:-0.099175595 94:0.051611304 95:0.018826619 96:0.0062162345 97:0.037024733 98:-0.07290889 99:0.053493045 100:0.026539149 101:0.024489436 102:0.007907014 103:0.04539458 104:0.02334807 105:0.050528657 106:0.031959683 107:-0.057580996 108:-0.056457292 109:-0.033163287 110:0.035125457 111:0.009138589 112:-0.06227506 113:-0.016934976 114:0.008808803 115:0.06398559 116:0.066408545 117:0.051299334 118:0.02033756 119:0.081675924 120:-0.06735292 121:-0.02914534 122:-0.009368943 123:-0.022266395 124:-0.0035081974 125:-0.03111006 126:0.022958027 127:0.01439132 128:-0.029103987 129:-0.1421384 130:-0.010166504 131:-0.05402293 132:0.056184884 133:-0.063345484 134:-0.03967982 135:0.042082373 136:-0.031529576 137:-0.03596766 138:0.02038681 139:0.06609331 140:-0.02876119 141:-0.0037361665 142:-0.04961814 143:0.036861513 144:0.005420892 145:-0.04532045 146:-0.04880926 147:0.053441405 148:0.04116014 149:0.020102229 150:0.031457495 151:-0.013056997 152:-0.06740942 153:0.02156534 154:0.09508833 155:0.025355415 156:0.014106848 157:0.032704685 158:0.035485152 159:-0.03566173 160:0.053831603 161:0.045569662 162:-0.055937935 163:0.03157437 164:0.03837141 165:-0.021554058 166:-0.042501595 167:-0.047355507 168:-0.020177826 169:0.07853634 170:-0.10729551 171:0.038821265 172:-0.06719519 173:-0.0077061784 174:0.013271769 175:0.03638108 176:0.0719817 177:-0.0010417989 178:-0.09344475 179:-0.04270877 180:-0.02930841 181:-0.006876461 182:0.005805445 183:0.11077095 184:0.060673844 185:0.012078754 186:0.05192466 187:0.10025027 188:0.08331313 189:0.055351023 190:0.05882954 191:0.015462131 192:0.12456115 193:-0.027723443 194:0.05131531 195:0.004901531 196:0.05966928 197:0.018101778 198:-0.0028123448 199:0.009756766 200:0.04991506 201:-0.060805462 202:0.04783782 203:-0.025957786 204:0.0081256665 205:0.06561748 206:-0.017231194 207:0.023157105 208:0.016207002 209:0.048718564 210:-0.05541588 211:-0.0038368355 212:-0.021888943 213:-0.0052507827 214:-0.0045351796 215:-0.028621867 216:-0.018390397 217:0.020525469 218:-0.021828359 219:0.035111494 220:-0.038661767 221:-0.002886302 222:-0.000226082 223:-0.02370439 224:0.00038823672 225:-0.0021453649 226:-0.024355525 227:-0.005048484 228:-0.059468158 229:0.07771082 230:0.026827846 231:0.076596186 232:-0.013179408 233:-0.063143246 234:-0.0013808763 235:0.025988199 236:0.026448483 237:-0.024008716 238:-0.0072017633 239:-0.0046613268 240:-0.058822688 241:0.07880697 242:0.008680473 243:0.017091043 244:0.019757787 245:0.024935905 246:-0.00520392 247:0.032136396 248:0.025186894 249:0.06568051 250:-0.0059837988 251:0.023571786 252:0.061639603 253:0.004471283 254:0.009457991 255:0.01907794 256:0.038150508 257:0.01880552 258:0.019648867 259:0.11264298 260:0.037289362 261:-0.02489965 262:0.013630566 263:-0.0044046175 264:-0.07051625 265:-0.037902277 266:0.020345408 267:0.0073461705 268:-0.026893357 269:-0.03695903 270:-0.07678245 271:0.027583083 272:0.012049363 273:-0.04572284 274:-0.021758463 275:-0.040662438 276:-0.021108398 277:-0.06802712 278:0.015151665 279:-0.023806026 280:-0.005183368 281:0.08390808 282:-0.047686435 283:-0.08023493 284:-0.029690688 285:0.015535479 286:0.069156945 287:0.0033556186 288:-0.036188234 289:-0.10443906 290:0.027911976 291:-0.007054901 292:0.045573417 293:0.0558311 294:-0.02521341 295:-0.066240884 296:0.07789266 297:0.06604338 298:0.045319784 299:0.03326884 300:0.010835092 301:-0.003806955 302:-0.026236739 303:-0.012564784 304:0.046817422 305:-0.037621673 306:-0.01967125 307:-0.013489572 308:-0.02240578 309:0.024438316 310:-0.0035048048 311:0.024085252 312:-0.008446358 313:0.010120056 314:0.0871831 315:0.01432235 316:-0.021560362 317:0.009485787 318:0.02742098 319:-0.013327285 320:0.11877011 321:-0.053650863 322:-0.07112555 323:0.03986685 324:0.006340176 325:0.007216972 326:0.06057789 327:0.042402975 328:0.08614006 329:0.066326514 330:0.026831044 331:0.03750697 332:-0.026882414 333:0.040416628 334:0.030279186 335:0.10282581 336:-0.02841056 337:0.019614292 338:-0.0054726275 339:0.0052670073 340:0.004449289 341:-0.030820755 342:0.053018346 343:0.022974279 344:-0.015456442 345:-0.025030956 346:0.04374662 347:0.05796941 348:0.051912148 349:0.052229486 350:-0.015840648 351:0.051340807 352:-0.07811331 353:0.027427642 354:-0.020798806 355:-0.002791778 356:0.08949318 357:-0.027912572 358:-0.005768979 359:-0.028415544 360:0.018375102 361:-0.025233818 362:-0.09489979 363:-0.06576925 364:-0.044077665 365:0.027271282 366:0.046038676 367:0.02405766 368:-0.011296637 369:-0.0024930171 370:-0.048278935 371:-0.04259614 372:-0.026994102 373:0.0066344026 374:0.045235645 375:0.043092344 376:0.03870035 377:-0.014710567 378:0.0003990347 379:-0.043280497 380:-0.041149564 381:-0.060097 382:-0.00824791 383:-0.002754987 384:-0.00043666657 385:-0.09230335 386:0.00676948 387:-0.07318297 388:0.012195102 389:-0.06401202 390:-0.011129098 391:0.055578157 392:0.0057600006 393:-0.0744557 394:0.03033532 395:-0.011344292 396:0.03832368 397:0.039186012 398:0.019756854 399:0.06605292 400:-0.055121772 401:0.052012984 402:0.022304166 403:0.02231288 404:0.008404209 405:-0.037755333 406:0.019812427 407:-0.020384949 408:0.07389959 409:-0.03594376 410:0.053479124 411:-0.05963449 412:0.038977344 413:-0.009657849 414:-0.03327795 415:0.032627087 416:0.034101937 417:0.034870353 418:-0.025759654 419:-0.05054918 420:0.061915714 421:0.03496579 422:-0.027452648 423:0.085606806 424:-0.053141966 425:-0.027470272 426:0.038037382 427:-0.052158307 428:0.012605833 429:-0.07381732 430:-0.027494475 431:0.05678706 432:0.010842741 433:-0.06212297 434:-0.023882713 435:0.0016969596 436:0.014984334 437:-0.028455451 438:-0.09036007 439:-0.06842017 440:-0.05756027 441:0.015445548 442:0.018931493 443:0.05623937 444:-0.00132312 445:-0.021072159 446:-0.010897412 447:0.006579466 448:-0.06296744 449:-0.057238147 450:-0.021022003 451:0.05334098 452:0.060710646 453:-0.034998745 454:-0.015544452 455:0.03322546 456:0.02789493 457:0.11789219 458:0.03970296 459:-0.006509267 460:0.0007628934 461:0.046508905 462:0.009884463 463:-0.029555133 464:0.059057336 465:-0.0018216203 466:-0.07369859 467:0.006435933 468:0.025211144 469:0.00026615045 470:0.06888815 471:-0.029387122 472:0.011802495 473:-0.019754982 474:-0.08025874 475:-0.044211462 476:0.06310043 477:-0.015839593 478:0.050050236 479:0.0616365 480:0.039600432 481:-0.028224794 482:0.0062617636 483:0.010527347 484:0.03504539 485:0.020605277 486:-0.055932686 487:-0.022276195 488:0.04665734 489:-0.05352304 490:-0.021342918 491:-0.011997727 492:-0.03128972 493:-0.045760196 494:0.05604575 495:-0.08094216 496:0.023662187 497:-0.057106573 498:0.001737319 499:-0.022105666 500:-0.08058801 501:-0.0035509723 502:-0.0085051125 503:0.016389536 504:-0.030788338 505:0.013593995 506:-0.028932653 507:0.024207206 508:0.012103841 509:-0.03952374 510:-0.01900976 511:0.0015671517 
0.3164257983708706 0 0 0.6212673838069135 0 0 0 0 0 0 1 0 0 0 0.8136762545249994 0 0 0 0 0:0.022787904 1:-0.0071897563 2:-0.03141603 3:0.032964505 4:-0.015597089 5:0.07273123 6:-0.09825032 7:0.04648181 8:-0.023072418 9:0.03155428 10:0.050440606 11:0.06288531 12:-0.0011524648 13:-0.06836483 14:0.014632652 15:-0.02600178 16:-0.0029329255 17:0.038746182 18:0.0035152335 19:-0.0658975 20:-0.07911218 21:0.026157947 22:0.07312566 23:-0.057609055 24:-0.02390228 25:0.015905064 26:0.0010819081 27:-0.018946206 28:-0.061545648 29:0.012682202 30:-0.010766673 31:0.055459004 32:0.028400844 33:0.020474536 34:-0.011336247 35:0.01803866 36:0.02951636 37:-0.012537506 38:-0.06480038 39:0.03380591 40:0.03226056 41:-0.0017087739 42:0.00243723 43:0.007818822 44:0.028469514 45:0.009747803 46:0.02190296 47:0.024076711 48:-0.10251199 49:-0.046807315 50:0.018712005 51:-0.01329946 52:0.023814308 53:0.0018791376 54:-0.077144936 55:0.077214874 56:-0.011490306 57:0.06102669 58:-0.03513908 59:-0.0051395316 60:-0.035448592 61:0.08611927 62:-0.10129985 63:-0.024578216 64:-0.014870681 65:0.048701663 66:0.008654901 67:-0.026159845 68:0.0026234444 69:-0.0027669622 70:0.1074172 71:0.04841101 72:-0.05272583 73:-0.0070994208 74:0.014410228 75:-0.040886145 76:-0.09613223 77:0.023286318 78:-0.010671386 79:-0.014594911 80:0.06941767 81:0.04400811 82:-0.0031074423 83:-0.0450713 84:0.01332241 85:0.041089125 86:-0.026649034 87:0.07388072 88:-0.019121507 89:0.027694108 90:0.0032849342 91:-0.007919413 92:0.025322307 93:-0.099175595 94:0.051611304 95:0.018826619 96:0.0062162345 97:0.037024733 98:-0.07290889 99:0.053493045 100:0.026539149 101:0.024489436 102:0.007907014 103:0.04539458 104:0.02334807 105:0.050528657 106:0.031959683 107:-0.057580996 108:-0.056457292 109:-0.033163287 110:0.035125457 111:0.009138589 112:-0.06227506 113:-0.016934976 114:0.008808803 115:0.06398559 116:0.066408545 117:0.051299334 118:0.02033756 119:0.081675924 120:-0.06735292 121:-0.02914534 122:-0.009368943 123:-0.022266395 124:-0.0035081974 125:-0.03111006 126:0.022958027 127:0.01439132 128:-0.029103987 129:-0.1421384 130:-0.010166504 131:-0.05402293 132:0.056184884 133:-0.063345484 134:-0.03967982 135:0.042082373 136:-0.031529576 137:-0.03596766 138:0.02038681 139:0.06609331 140:-0.02876119 141:-0.0037361665 142:-0.04961814 143:0.036861513 144:0.005420892 145:-0.04532045 146:-0.04880926 147:0.053441405 148:0.04116014 149:0.020102229 150:0.031457495 151:-0.013056997 152:-0.06740942 153:0.02156534 154:0.09508833 155:0.025355415 156:0.014106848 157:0.032704685 158:0.035485152 159:-0.03566173 160:0.053831603 161:0.045569662 162:-0.055937935 163:0.03157437 164:0.03837141 165:-0.021554058 166:-0.042501595 167:-0.047355507 168:-0.020177826 169:0.07853634 170:-0.10729551 171:0.038821265 172:-0.06719519 173:-0.0077061784 174:0.013271769 175:0.03638108 176:0.0719817 177:-0.0010417989 178:-0.09344475 179:-0.04270877 180:-0.02930841 181:-0.006876461 182:0.005805445 183:0.11077095 184:0.060673844 185:0.012078754 186:0.05192466 187:0.10025027 188:0.08331313 189:0.055351023 190:0.05882954 191:0.015462131 192:0.12456115 193:-0.027723443 194:0.05131531 195:0.004901531 196:0.05966928 197:0.018101778 198:-0.0028123448 199:0.009756766 200:0.04991506 201:-0.060805462 202:0.04783782 203:-0.025957786 204:0.0081256665 205:0.06561748 206:-0.017231194 207:0.023157105 208:0.016207002 209:0.048718564 210:-0.05541588 211:-0.0038368355 212:-0.021888943 213:-0.0052507827 214:-0.0045351796 215:-0.028621867 216:-0.018390397 217:0.020525469 218:-0.021828359 219:0.035111494 220:-0.038661767 221:-0.002886302 222:-0.000226082 223:-0.02370439 224:0.00038823672 225:-0.0021453649 226:-0.024355525 227:-0.005048484 228:-0.059468158 229:0.07771082 230:0.026827846 231:0.076596186 232:-0.013179408 233:-0.063143246 234:-0.0013808763 235:0.025988199 236:0.026448483 237:-0.024008716 238:-0.0072017633 239:-0.0046613268 240:-0.058822688 241:0.07880697 242:0.008680473 243:0.017091043 244:0.019757787 245:0.024935905 246:-0.00520392 247:0.032136396 248:0.025186894 249:0.06568051 250:-0.0059837988 251:0.023571786 252:0.061639603 253:0.004471283 254:0.009457991 255:0.01907794 256:0.038150508 257:0.01880552 258:0.019648867 259:0.11264298 260:0.037289362 261:-0.02489965 262:0.013630566 263:-0.0044046175 264:-0.07051625 265:-0.037902277 266:0.020345408 267:0.0073461705 268:-0.026893357 269:-0.03695903 270:-0.07678245 271:0.027583083 272:0.012049363 273:-0.04572284 274:-0.021758463 275:-0.040662438 276:-0.021108398 277:-0.06802712 278:0.015151665 279:-0.023806026 280:-0.005183368 281:0.08390808 282:-0.047686435 283:-0.08023493 284:-0.029690688 285:0.015535479 286:0.069156945 287:0.0033556186 288:-0.036188234 289:-0.10443906 290:0.027911976 291:-0.007054901 292:0.045573417 293:0.0558311 294:-0.02521341 295:-0.066240884 296:0.07789266 297:0.06604338 298:0.045319784 299:0.03326884 300:0.010835092 301:-0.003806955 302:-0.026236739 303:-0.012564784 304:0.046817422 305:-0.037621673 306:-0.01967125 307:-0.013489572 308:-0.02240578 309:0.024438316 310:-0.0035048048 311:0.024085252 312:-0.008446358 313:0.010120056 314:0.0871831 315:0.01432235 316:-0.021560362 317:0.009485787 318:0.02742098 319:-0.013327285 320:0.11877011 321:-0.053650863 322:-0.07112555 323:0.03986685 324:0.006340176 325:0.007216972 326:0.06057789 327:0.042402975 328:0.08614006 329:0.066326514 330:0.026831044 331:0.03750697 332:-0.026882414 333:0.040416628 334:0.030279186 335:0.10282581 336:-0.02841056 337:0.019614292 338:-0.0054726275 339:0.0052670073 340:0.004449289 341:-0.030820755 342:0.053018346 343:0.022974279 344:-0.015456442 345:-0.025030956 346:0.04374662 347:0.05796941 348:0.051912148 349:0.052229486 350:-0.015840648 351:0.051340807 352:-0.07811331 353:0.027427642 354:-0.020798806 355:-0.002791778 356:0.08949318 357:-0.027912572 358:-0.005768979 359:-0.028415544 360:0.018375102 361:-0.025233818 362:-0.09489979 363:-0.06576925 364:-0.044077665 365:0.027271282 366:0.046038676 367:0.02405766 368:-0.011296637 369:-0.0024930171 370:-0.048278935 371:-0.04259614 372:-0.026994102 373:0.0066344026 374:0.045235645 375:0.043092344 376:0.03870035 377:-0.014710567 378:0.0003990347 379:-0.043280497 380:-0.041149564 381:-0.060097 382:-0.00824791 383:-0.002754987 384:-0.00043666657 385:-0.09230335 386:0.00676948 387:-0.07318297 388:0.012195102 389:-0.06401202 390:-0.011129098 391:0.055578157 392:0.0057600006 393:-0.0744557 394:0.03033532 395:-0.011344292 396:0.03832368 397:0.039186012 398:0.019756854 399:0.06605292 400:-0.055121772 401:0.052012984 402:0.022304166 403:0.02231288 404:0.008404209 405:-0.037755333 406:0.019812427 407:-0.020384949 408:0.07389959 409:-0.03594376 410:0.053479124 411:-0.05963449 412:0.038977344 413:-0.009657849 414:-0.03327795 415:0.032627087 416:0.034101937 417:0.034870353 418:-0.025759654 419:-0.05054918 420:0.061915714 421:0.03496579 422:-0.027452648 423:0.085606806 424:-0.053141966 425:-0.027470272 426:0.038037382 427:-0.052158307 428:0.012605833 429:-0.07381732 430:-0.027494475 431:0.05678706 432:0.010842741 433:-0.06212297 434:-0.023882713 435:0.0016969596 436:0.014984334 437:-0.028455451 438:-0.09036007 439:-0.06842017 440:-0.05756027 441:0.015445548 442:0.018931493 443:0.05623937 444:-0.00132312 445:-0.021072159 446:-0.010897412 447:0.006579466 448:-0.06296744 449:-0.057238147 450:-0.021022003 451:0.05334098 452:0.060710646 453:-0.034998745 454:-0.015544452 455:0.03322546 456:0.02789493 457:0.11789219 458:0.03970296 459:-0.006509267 460:0.0007628934 461:0.046508905 462:0.009884463 463:-0.029555133 464:0.059057336 465:-0.0018216203 466:-0.07369859 467:0.006435933 468:0.025211144 469:0.00026615045 470:0.06888815 471:-0.029387122 472:0.011802495 473:-0.019754982 474:-0.08025874 475:-0.044211462 476:0.06310043 477:-0.015839593 478:0.050050236 479:0.0616365 480:0.039600432 481:-0.028224794 482:0.0062617636 483:0.010527347 484:0.03504539 485:0.020605277 486:-0.055932686 487:-0.022276195 488:0.04665734 489:-0.05352304 490:-0.021342918 491:-0.011997727 492:-0.03128972 493:-0.045760196 494:0.05604575 495:-0.08094216 496:0.023662187 497:-0.057106573 498:0.001737319 499:-0.022105666 500:-0.08058801 501:-0.0035509723 502:-0.0085051125 503:0.016389536 504:-0.030788338 505:0.013593995 506:-0.028932653 507:0.024207206 508:0.012103841 509:-0.03952374 510:-0.01900976 511:0.0015671517 
1 0 0 1 1 0 1 0.5346826442903455 0 0.1537793497758617 1 0 0 0 1 0 0 0.2150085949799462 0 0:0.022787904 1:-0.0071897563 2:-0.03141603 3:0.032964505 4:-0.015597089 5:0.07273123 6:-0.09825032 7:0.04648181 8:-0.023072418 9:0.03155428 10:0.050440606 11:0.06288531 12:-0.0011524648 13:-0.06836483 14:0.014632652 15:-0.02600178 16:-0.0029329255 17:0.038746182 18:0.0035152335 19:-0.0658975 20:-0.07911218 21:0.026157947 22:0.07312566 23:-0.057609055 24:-0.02390228 25:0.015905064 26:0.0010819081 27:-0.018946206 28:-0.061545648 29:0.012682202 30:-0.010766673 31:0.055459004 32:0.028400844 33:0.020474536 34:-0.011336247 35:0.01803866 36:0.02951636 37:-0.012537506 38:-0.06480038 39:0.03380591 40:0.03226056 41:-0.0017087739 42:0.00243723 43:0.007818822 44:0.028469514 45:0.009747803 46:0.02190296 47:0.024076711 48:-0.10251199 49:-0.046807315 50:0.018712005 51:-0.01329946 52:0.023814308 53:0.0018791376 54:-0.077144936 55:0.077214874 56:-0.011490306 57:0.06102669 58:-0.03513908 59:-0.0051395316 60:-0.035448592 61:0.08611927 62:-0.10129985 63:-0.024578216 64:-0.014870681 65:0.048701663 66:0.008654901 67:-0.026159845 68:0.0026234444 69:-0.0027669622 70:0.1074172 71:0.04841101 72:-0.05272583 73:-0.0070994208 74:0.014410228 75:-0.040886145 76:-0.09613223 77:0.023286318 78:-0.010671386 79:-0.014594911 80:0.06941767 81:0.04400811 82:-0.0031074423 83:-0.0450713 84:0.01332241 85:0.041089125 86:-0.026649034 87:0.07388072 88:-0.019121507 89:0.027694108 90:0.0032849342 91:-0.007919413 92:0.025322307 93:-0.099175595 94:0.051611304 95:0.018826619 96:0.0062162345 97:0.037024733 98:-0.07290889 99:0.053493045 100:0.026539149 101:0.024489436 102:0.007907014 103:0.04539458 104:0.02334807 105:0.050528657 106:0.031959683 107:-0.057580996 108:-0.056457292 109:-0.033163287 110:0.035125457 111:0.009138589 112:-0.06227506 113:-0.016934976 114:0.008808803 115:0.06398559 116:0.066408545 117:0.051299334 118:0.02033756 119:0.081675924 120:-0.06735292 121:-0.02914534 122:-0.009368943 123:-0.022266395 124:-0.0035081974 125:-0.03111006 126:0.022958027 127:0.01439132 128:-0.029103987 129:-0.1421384 130:-0.010166504 131:-0.05402293 132:0.056184884 133:-0.063345484 134:-0.03967982 135:0.042082373 136:-0.031529576 137:-0.03596766 138:0.02038681 139:0.06609331 140:-0.02876119 141:-0.0037361665 142:-0.04961814 143:0.036861513 144:0.005420892 145:-0.04532045 146:-0.04880926 147:0.053441405 148:0.04116014 149:0.020102229 150:0.031457495 151:-0.013056997 152:-0.06740942 153:0.02156534 154:0.09508833 155:0.025355415 156:0.014106848 157:0.032704685 158:0.035485152 159:-0.03566173 160:0.053831603 161:0.045569662 162:-0.055937935 163:0.03157437 164:0.03837141 165:-0.021554058 166:-0.042501595 167:-0.047355507 168:-0.020177826 169:0.07853634 170:-0.10729551 171:0.038821265 172:-0.06719519 173:-0.0077061784 174:0.013271769 175:0.03638108 176:0.0719817 177:-0.0010417989 178:-0.09344475 179:-0.04270877 180:-0.02930841 181:-0.006876461 182:0.005805445 183:0.11077095 184:0.060673844 185:0.012078754 186:0.05192466 187:0.10025027 188:0.08331313 189:0.055351023 190:0.05882954 191:0.015462131 192:0.12456115 193:-0.027723443 194:0.05131531 195:0.004901531 196:0.05966928 197:0.018101778 198:-0.0028123448 199:0.009756766 200:0.04991506 201:-0.060805462 202:0.04783782 203:-0.025957786 204:0.0081256665 205:0.06561748 206:-0.017231194 207:0.023157105 208:0.016207002 209:0.048718564 210:-0.05541588 211:-0.0038368355 212:-0.021888943 213:-0.0052507827 214:-0.0045351796 215:-0.028621867 216:-0.018390397 217:0.020525469 218:-0.021828359 219:0.035111494 220:-0.038661767 221:-0.002886302 222:-0.000226082 223:-0.02370439 224:0.00038823672 225:-0.0021453649 226:-0.024355525 227:-0.005048484 228:-0.059468158 229:0.07771082 230:0.026827846 231:0.076596186 232:-0.013179408 233:-0.063143246 234:-0.0013808763 235:0.025988199 236:0.026448483 237:-0.024008716 238:-0.0072017633 239:-0.0046613268 240:-0.058822688 241:0.07880697 242:0.008680473 243:0.017091043 244:0.019757787 245:0.024935905 246:-0.00520392 247:0.032136396 248:0.025186894 249:0.06568051 250:-0.0059837988 251:0.023571786 252:0.061639603 253:0.004471283 254:0.009457991 255:0.01907794 256:0.038150508 257:0.01880552 258:0.019648867 259:0.11264298 260:0.037289362 261:-0.02489965 262:0.013630566 263:-0.0044046175 264:-0.07051625 265:-0.037902277 266:0.020345408 267:0.0073461705 268:-0.026893357 269:-0.03695903 270:-0.07678245 271:0.027583083 272:0.012049363 273:-0.04572284 274:-0.021758463 275:-0.040662438 276:-0.021108398 277:-0.06802712 278:0.015151665 279:-0.023806026 280:-0.005183368 281:0.08390808 282:-0.047686435 283:-0.08023493 284:-0.029690688 285:0.015535479 286:0.069156945 287:0.0033556186 288:-0.036188234 289:-0.10443906 290:0.027911976 291:-0.007054901 292:0.045573417 293:0.0558311 294:-0.02521341 295:-0.066240884 296:0.07789266 297:0.06604338 298:0.045319784 299:0.03326884 300:0.010835092 301:-0.003806955 302:-0.026236739 303:-0.012564784 304:0.046817422 305:-0.037621673 306:-0.01967125 307:-0.013489572 308:-0.02240578 309:0.024438316 310:-0.0035048048 311:0.024085252 312:-0.008446358 313:0.010120056 314:0.0871831 315:0.01432235 316:-0.021560362 317:0.009485787 318:0.02742098 319:-0.013327285 320:0.11877011 321:-0.053650863 322:-0.07112555 323:0.03986685 324:0.006340176 325:0.007216972 326:0.06057789 327:0.042402975 328:0.08614006 329:0.066326514 330:0.026831044 331:0.03750697 332:-0.026882414 333:0.040416628 334:0.030279186 335:0.10282581 336:-0.02841056 337:0.019614292 338:-0.0054726275 339:0.0052670073 340:0.004449289 341:-0.030820755 342:0.053018346 343:0.022974279 344:-0.015456442 345:-0.025030956 346:0.04374662 347:0.05796941 348:0.051912148 349:0.052229486 350:-0.015840648 351:0.051340807 352:-0.07811331 353:0.027427642 354:-0.020798806 355:-0.002791778 356:0.08949318 357:-0.027912572 358:-0.005768979 359:-0.028415544 360:0.018375102 361:-0.025233818 362:-0.09489979 363:-0.06576925 364:-0.044077665 365:0.027271282 366:0.046038676 367:0.02405766 368:-0.011296637 369:-0.0024930171 370:-0.048278935 371:-0.04259614 372:-0.026994102 373:0.0066344026 374:0.045235645 375:0.043092344 376:0.03870035 377:-0.014710567 378:0.0003990347 379:-0.043280497 380:-0.041149564 381:-0.060097 382:-0.00824791 383:-0.002754987 384:-0.00043666657 385:-0.09230335 386:0.00676948 387:-0.07318297 388:0.012195102 389:-0.06401202 390:-0.011129098 391:0.055578157 392:0.0057600006 393:-0.0744557 394:0.03033532 395:-0.011344292 396:0.03832368 397:0.039186012 398:0.019756854 399:0.06605292 400:-0.055121772 401:0.052012984 402:0.022304166 403:0.02231288 404:0.008404209 405:-0.037755333 406:0.019812427 407:-0.020384949 408:0.07389959 409:-0.03594376 410:0.053479124 411:-0.05963449 412:0.038977344 413:-0.009657849 414:-0.03327795 415:0.032627087 416:0.034101937 417:0.034870353 418:-0.025759654 419:-0.05054918 420:0.061915714 421:0.03496579 422:-0.027452648 423:0.085606806 424:-0.053141966 425:-0.027470272 426:0.038037382 427:-0.052158307 428:0.012605833 429:-0.07381732 430:-0.027494475 431:0.05678706 432:0.010842741 433:-0.06212297 434:-0.023882713 435:0.0016969596 436:0.014984334 437:-0.028455451 438:-0.09036007 439:-0.06842017 440:-0.05756027 441:0.015445548 442:0.018931493 443:0.05623937 444:-0.00132312 445:-0.021072159 446:-0.010897412 447:0.006579466 448:-0.06296744 449:-0.057238147 450:-0.021022003 451:0.05334098 452:0.060710646 453:-0.034998745 454:-0.015544452 455:0.03322546 456:0.02789493 457:0.11789219 458:0.03970296 459:-0.006509267 460:0.0007628934 461:0.046508905 462:0.009884463 463:-0.029555133 464:0.059057336 465:-0.0018216203 466:-0.07369859 467:0.006435933 468:0.025211144 469:0.00026615045 470:0.06888815 471:-0.029387122 472:0.011802495 473:-0.019754982 474:-0.08025874 475:-0.044211462 476:0.06310043 477:-0.015839593 478:0.050050236 479:0.0616365 480:0.039600432 481:-0.028224794 482:0.0062617636 483:0.010527347 484:0.03504539 485:0.020605277 486:-0.055932686 487:-0.022276195 488:0.04665734 489:-0.05352304 490:-0.021342918 491:-0.011997727 492:-0.03128972 493:-0.045760196 494:0.05604575 495:-0.08094216 496:0.023662187 497:-0.057106573 498:0.001737319 499:-0.022105666 500:-0.08058801 501:-0.0035509723 502:-0.0085051125 503:0.016389536 504:-0.030788338 505:0.013593995 506:-0.028932653 507:0.024207206 508:0.012103841 509:-0.03952374 510:-0.01900976 511:0.0015671517 
0.839839814654574 0.9002005594943761 0.5247826272311497 0.9977710140653601 0.796190854253996 0.782301338980672 0.7358521049139046 0.9847412809595305 0.7661187053168869 0.9982032428294028 1 0.8389543079736387 0.4399739393387945 0.4782513337588754 1 0.3368533058592148 0.934170246086821 1 0.7816754902922 0:0.022787904 1:-0.0071897563 2:-0.03141603 3:0.032964505 4:-0.015597089 5:0.07273123 6:-0.09825032 7:0.04648181 8:-0.023072418 9:0.03155428 10:0.050440606 11:0.06288531 12:-0.0011524648 13:-0.06836483 14:0.014632652 15:-0.02600178 16:-0.0029329255 17:0.038746182 18:0.0035152335 19:-0.0658975 20:-0.07911218 21:0.026157947 22:0.07312566 23:-0.057609055 24:-0.02390228 25:0.015905064 26:0.0010819081 27:-0.018946206 28:-0.061545648 29:0.012682202 30:-0.010766673 31:0.055459004 32:0.028400844 33:0.020474536 34:-0.011336247 35:0.01803866 36:0.02951636 37:-0.012537506 38:-0.06480038 39:0.03380591 40:0.03226056 41:-0.0017087739 42:0.00243723 43:0.007818822 44:0.028469514 45:0.009747803 46:0.02190296 47:0.024076711 48:-0.10251199 49:-0.046807315 50:0.018712005 51:-0.01329946 52:0.023814308 53:0.0018791376 54:-0.077144936 55:0.077214874 56:-0.011490306 57:0.06102669 58:-0.03513908 59:-0.0051395316 60:-0.035448592 61:0.08611927 62:-0.10129985 63:-0.024578216 64:-0.014870681 65:0.048701663 66:0.008654901 67:-0.026159845 68:0.0026234444 69:-0.0027669622 70:0.1074172 71:0.04841101 72:-0.05272583 73:-0.0070994208 74:0.014410228 75:-0.040886145 76:-0.09613223 77:0.023286318 78:-0.010671386 79:-0.014594911 80:0.06941767 81:0.04400811 82:-0.0031074423 83:-0.0450713 84:0.01332241 85:0.041089125 86:-0.026649034 87:0.07388072 88:-0.019121507 89:0.027694108 90:0.0032849342 91:-0.007919413 92:0.025322307 93:-0.099175595 94:0.051611304 95:0.018826619 96:0.0062162345 97:0.037024733 98:-0.07290889 99:0.053493045 100:0.026539149 101:0.024489436 102:0.007907014 103:0.04539458 104:0.02334807 105:0.050528657 106:0.031959683 107:-0.057580996 108:-0.056457292 109:-0.033163287 110:0.035125457 111:0.009138589 112:-0.06227506 113:-0.016934976 114:0.008808803 115:0.06398559 116:0.066408545 117:0.051299334 118:0.02033756 119:0.081675924 120:-0.06735292 121:-0.02914534 122:-0.009368943 123:-0.022266395 124:-0.0035081974 125:-0.03111006 126:0.022958027 127:0.01439132 128:-0.029103987 129:-0.1421384 130:-0.010166504 131:-0.05402293 132:0.056184884 133:-0.063345484 134:-0.03967982 135:0.042082373 136:-0.031529576 137:-0.03596766 138:0.02038681 139:0.06609331 140:-0.02876119 141:-0.0037361665 142:-0.04961814 143:0.036861513 144:0.005420892 145:-0.04532045 146:-0.04880926 147:0.053441405 148:0.04116014 149:0.020102229 150:0.031457495 151:-0.013056997 152:-0.06740942 153:0.02156534 154:0.09508833 155:0.025355415 156:0.014106848 157:0.032704685 158:0.035485152 159:-0.03566173 160:0.053831603 161:0.045569662 162:-0.055937935 163:0.03157437 164:0.03837141 165:-0.021554058 166:-0.042501595 167:-0.047355507 168:-0.020177826 169:0.07853634 170:-0.10729551 171:0.038821265 172:-0.06719519 173:-0.0077061784 174:0.013271769 175:0.03638108 176:0.0719817 177:-0.0010417989 178:-0.09344475 179:-0.04270877 180:-0.02930841 181:-0.006876461 182:0.005805445 183:0.11077095 184:0.060673844 185:0.012078754 186:0.05192466 187:0.10025027 188:0.08331313 189:0.055351023 190:0.05882954 191:0.015462131 192:0.12456115 193:-0.027723443 194:0.05131531 195:0.004901531 196:0.05966928 197:0.018101778 198:-0.0028123448 199:0.009756766 200:0.04991506 201:-0.060805462 202:0.04783782 203:-0.025957786 204:0.0081256665 205:0.06561748 206:-0.017231194 207:0.023157105 208:0.016207002 209:0.048718564 210:-0.05541588 211:-0.0038368355 212:-0.021888943 213:-0.0052507827 214:-0.0045351796 215:-0.028621867 216:-0.018390397 217:0.020525469 218:-0.021828359 219:0.035111494 220:-0.038661767 221:-0.002886302 222:-0.000226082 223:-0.02370439 224:0.00038823672 225:-0.0021453649 226:-0.024355525 227:-0.005048484 228:-0.059468158 229:0.07771082 230:0.026827846 231:0.076596186 232:-0.013179408 233:-0.063143246 234:-0.0013808763 235:0.025988199 236:0.026448483 237:-0.024008716 238:-0.0072017633 239:-0.0046613268 240:-0.058822688 241:0.07880697 242:0.008680473 243:0.017091043 244:0.019757787 245:0.024935905 246:-0.00520392 247:0.032136396 248:0.025186894 249:0.06568051 250:-0.0059837988 251:0.023571786 252:0.061639603 253:0.004471283 254:0.009457991 255:0.01907794 256:0.038150508 257:0.01880552 258:0.019648867 259:0.11264298 260:0.037289362 261:-0.02489965 262:0.013630566 263:-0.0044046175 264:-0.07051625 265:-0.037902277 266:0.020345408 267:0.0073461705 268:-0.026893357 269:-0.03695903 270:-0.07678245 271:0.027583083 272:0.012049363 273:-0.04572284 274:-0.021758463 275:-0.040662438 276:-0.021108398 277:-0.06802712 278:0.015151665 279:-0.023806026 280:-0.005183368 281:0.08390808 282:-0.047686435 283:-0.08023493 284:-0.029690688 285:0.015535479 286:0.069156945 287:0.0033556186 288:-0.036188234 289:-0.10443906 290:0.027911976 291:-0.007054901 292:0.045573417 293:0.0558311 294:-0.02521341 295:-0.066240884 296:0.07789266 297:0.06604338 298:0.045319784 299:0.03326884 300:0.010835092 301:-0.003806955 302:-0.026236739 303:-0.012564784 304:0.046817422 305:-0.037621673 306:-0.01967125 307:-0.013489572 308:-0.02240578 309:0.024438316 310:-0.0035048048 311:0.024085252 312:-0.008446358 313:0.010120056 314:0.0871831 315:0.01432235 316:-0.021560362 317:0.009485787 318:0.02742098 319:-0.013327285 320:0.11877011 321:-0.053650863 322:-0.07112555 323:0.03986685 324:0.006340176 325:0.007216972 326:0.06057789 327:0.042402975 328:0.08614006 329:0.066326514 330:0.026831044 331:0.03750697 332:-0.026882414 333:0.040416628 334:0.030279186 335:0.10282581 336:-0.02841056 337:0.019614292 338:-0.0054726275 339:0.0052670073 340:0.004449289 341:-0.030820755 342:0.053018346 343:0.022974279 344:-0.015456442 345:-0.025030956 346:0.04374662 347:0.05796941 348:0.051912148 349:0.052229486 350:-0.015840648 351:0.051340807 352:-0.07811331 353:0.027427642 354:-0.020798806 355:-0.002791778 356:0.08949318 357:-0.027912572 358:-0.005768979 359:-0.028415544 360:0.018375102 361:-0.025233818 362:-0.09489979 363:-0.06576925 364:-0.044077665 365:0.027271282 366:0.046038676 367:0.02405766 368:-0.011296637 369:-0.0024930171 370:-0.048278935 371:-0.04259614 372:-0.026994102 373:0.0066344026 374:0.045235645 375:0.043092344 376:0.03870035 377:-0.014710567 378:0.0003990347 379:-0.043280497 380:-0.041149564 381:-0.060097 382:-0.00824791 383:-0.002754987 384:-0.00043666657 385:-0.09230335 386:0.00676948 387:-0.07318297 388:0.012195102 389:-0.06401202 390:-0.011129098 391:0.055578157 392:0.0057600006 393:-0.0744557 394:0.03033532 395:-0.011344292 396:0.03832368 397:0.039186012 398:0.019756854 399:0.06605292 400:-0.055121772 401:0.052012984 402:0.022304166 403:0.02231288 404:0.008404209 405:-0.037755333 406:0.019812427 407:-0.020384949 408:0.07389959 409:-0.03594376 410:0.053479124 411:-0.05963449 412:0.038977344 413:-0.009657849 414:-0.03327795 415:0.032627087 416:0.034101937 417:0.034870353 418:-0.025759654 419:-0.05054918 420:0.061915714 421:0.03496579 422:-0.027452648 423:0.085606806 424:-0.053141966 425:-0.027470272 426:0.038037382 427:-0.052158307 428:0.012605833 429:-0.07381732 430:-0.027494475 431:0.05678706 432:0.010842741 433:-0.06212297 434:-0.023882713 435:0.0016969596 436:0.014984334 437:-0.028455451 438:-0.09036007 439:-0.06842017 440:-0.05756027 441:0.015445548 442:0.018931493 443:0.05623937 444:-0.00132312 445:-0.021072159 446:-0.010897412 447:0.006579466 448:-0.06296744 449:-0.057238147 450:-0.021022003 451:0.05334098 452:0.060710646 453:-0.034998745 454:-0.015544452 455:0.03322546 456:0.02789493 457:0.11789219 458:0.03970296 459:-0.006509267 460:0.0007628934 461:0.046508905 462:0.009884463 463:-0.029555133 464:0.059057336 465:-0.0018216203 466:-0.07369859 467:0.006435933 468:0.025211144 469:0.00026615045 470:0.06888815 471:-0.029387122 472:0.011802495 473:-0.019754982 474:-0.08025874 475:-0.044211462 476:0.06310043 477:-0.015839593 478:0.050050236 479:0.0616365 480:0.039600432 481:-0.028224794 482:0.0062617636 483:0.010527347 484:0.03504539 485:0.020605277 486:-0.055932686 487:-0.022276195 488:0.04665734 489:-0.05352304 490:-0.021342918 491:-0.011997727 492:-0.03128972 493:-0.045760196 494:0.05604575 495:-0.08094216 496:0.023662187 497:-0.057106573 498:0.001737319 499:-0.022105666 500:-0.08058801 501:-0.0035509723 502:-0.0085051125 503:0.016389536 504:-0.030788338 505:0.013593995 506:-0.028932653 507:0.024207206 508:0.012103841 509:-0.03952374 510:-0.01900976 511:0.0015671517 
0 0.04597568967538667 0 0 0 0 0.2083038448680574 0.4698060557702049 0 0.09379057885715436 0 0.05728482790902174 0.251911011497399 0 0 0.2533814530246573 1 0.7324283622809453 0 0:0.007381675 1:0.10970081 2:-0.07776643 3:0.010129252 4:-0.01793923 5:-0.074620865 6:0.037467755 7:0.043215763 8:0.032901976 9:-0.01750983 10:0.011573365 11:-0.049409386 12:-0.018016594 13:-0.028507993 14:-0.009590316 15:0.014666931 16:0.04806602 17:0.059416737 18:0.010595119 19:-0.0042799977 20:0.012254917 21:-0.072437815 22:-0.009454447 23:-0.022709688 24:-0.007745915 25:-0.10015631 26:0.042823907 27:-0.020132352 28:-0.014238199 29:0.047891878 30:0.045490958 31:-0.0038038304 32:-0.020758627 33:0.026945105 34:0.043795656 35:-0.06287131 36:0.06120181 37:0.027934253 38:-0.0047707683 39:0.0044551594 40:-0.061721236 41:-0.012348353 42:-0.01718639 43:0.048294175 44:-0.0048012747 45:-0.055030316 46:-0.028933998 47:0.019513695 48:-0.048169695 49:0.035131734 50:-0.028688071 51:-0.028992362 52:-0.0299093 53:-0.055630036 54:-0.03638581 55:0.009273432 56:-0.059641074 57:-0.01632932 58:0.017523138 59:0.065221034 60:-0.035608225 61:0.03995975 62:0.012472853 63:0.031772714 64:-0.04683878 65:-0.029245583 66:0.025076333 67:0.04384089 68:0.036920283 69:-0.08969675 70:-0.034216315 71:-0.07778798 72:-0.04408449 73:0.008578396 74:0.0060478165 75:-0.06790238 76:-0.012436837 77:-0.00790955 78:0.08849179 79:-0.024728972 80:-0.015337624 81:0.011459855 82:0.0046835137 83:-0.0008952908 84:-0.070366256 85:0.02281216 86:-0.0319375 87:0.0358468 88:0.01579359 89:-0.05574169 90:-0.088057674 91:0.007957793 92:-0.042336136 93:-0.06037091 94:0.00692143 95:-0.00040352595 96:-0.049023766 97:-0.057617318 98:-0.035898022 99:-0.0022094408 100:-0.013422575 101:0.061339416 102:-0.058968678 103:0.0068431124 104:0.011718709 105:0.055306394 106:-0.055567745 107:-0.06723276 108:0.011088837 109:-0.061094012 110:0.029726097 111:0.02145825 112:0.013857974 113:0.0022475426 114:0.06260044 115:0.07411777 116:0.07752575 117:0.0475863 118:-0.04772107 119:0.00036747375 120:-0.010740085 121:0.07003633 122:0.07169761 123:0.018453207 124:-0.040855207 125:-0.010168508 126:-0.044574328 127:-0.023973959 128:-0.010333045 129:0.06539006 130:-0.051922996 131:0.035343084 132:0.08680769 133:-0.12198158 134:0.1281673 135:-0.026709463 136:-0.060409255 137:-0.1050486 138:0.051188122 139:0.019832563 140:0.016189527 141:0.011759136 142:-0.0476681 143:-0.009920517 144:-0.040244438 145:0.046452973 146:-0.032174338 147:0.060371313 148:0.03500819 149:0.031688374 150:-0.0043333326 151:-0.02378434 152:0.043729264 153:-0.034102056 154:0.018646719 155:-0.007817694 156:-0.023414675 157:-0.0031983892 158:-0.013428566 159:-0.05696252 160:0.050828904 161:0.08152634 162:0.04340361 163:0.015403893 164:0.021771453 165:0.039810754 166:-0.057719227 167:0.0707338 168:-0.02356784 169:0.032870706 170:-0.027427481 171:0.030966511 172:0.017869927 173:0.05308772 174:-0.058985744 175:-0.011630609 176:-0.012975856 177:-0.002256724 178:0.045346234 179:-0.06286158 180:0.020303417 181:-0.0030328361 182:0.08972955 183:-0.004954797 184:-0.0004885453 185:0.031810816 186:-0.009482629 187:0.027305592 188:0.024904449 189:0.03379992 190:-0.015804216 191:0.024619436 192:0.07260788 193:0.032668117 194:0.051638816 195:-0.006818448 196:0.014775047 197:0.032932438 198:0.05209425 199:-0.027740343 200:-0.0045933956 201:-0.10348894 202:0.12368854 203:-0.013599018 204:0.089416124 205:0.02857648 206:0.009849936 207:0.056175314 208:-0.02658871 209:-0.008307633 210:-0.017886309 211:0.04139543 212:-0.030126616 213:0.017145889 214:-0.007982344 215:-0.006898178 216:0.041298237 217:-0.021349467 218:-0.03365476 219:0.019575153 220:0.018828878 221:0.036223605 222:0.012736333 223:0.021562444 224:0.029711738 225:0.022556253 226:0.085608386 227:0.015085517 228:-0.11030864 229:0.021651197 230:-0.039193828 231:0.019115333 232:-0.009002178 233:-0.0525828 234:-0.027226541 235:0.07516026 236:-0.009197223 237:-0.0034189175 238:0.03342245 239:-0.059995253 240:0.003948755 241:0.010410855 242:0.021942426 243:-0.015096319 244:-0.0059586754 245:0.044724107 246:0.0041653025 247:0.038640298 248:-0.0077244565 249:-0.014185404 250:-0.09579916 251:0.019934932 252:0.060556274 253:0.024045223 254:-0.10614741 255:-0.09879253 256:0.020562962 257:0.0011086536 258:-0.024521062 259:-0.020071562 260:0.052023884 261:-0.04769074 262:-0.0050113723 263:0.01809792 264:-0.02942814 265:-0.0026696972 266:-0.007523524 267:-0.014440288 268:0.007311193 269:-0.06302054 270:-0.01445241 271:-0.035653733 272:0.04189028 273:0.037523188 274:-0.08434542 275:0.027186103 276:-0.013260926 277:0.00035380296 278:0.0029440636 279:-0.024674384 280:-0.08670822 281:0.03077771 282:0.02422816 283:0.020198066 284:0.022445941 285:0.008054897 286:0.11080169 287:-0.035327505 288:-0.05084006 289:-0.00019733401 290:-0.050899375 291:-0.026386146 292:-0.030680912 293:0.013242324 294:0.0030763405 295:0.03056045 296:-0.00477925 297:0.008910503 298:0.11394323 299:-0.005108521 300:0.005313973 301:0.006314711 302:-0.07226796 303:-0.05088539 304:-0.025394702 305:0.05294012 306:0.024849093 307:-0.054451976 308:0.021350672 309:0.04704955 310:-0.01669175 311:0.009037836 312:0.043518625 313:-0.08049409 314:0.036397107 315:-0.03258237 316:-0.0005197826 317:0.011487359 318:0.050040286 319:-0.08614471 320:-0.042669155 321:-0.05038145 322:-0.013780349 323:0.05899357 324:0.01489033 325:0.03532068 326:0.022121973 327:0.05718933 328:0.03186171 329:0.05622525 330:-0.004952201 331:0.04879744 332:-0.13963129 333:0.030744452 334:-0.060217015 335:5.347571e-05 336:0.010753679 337:-0.024744486 338:0.030744808 339:0.05700276 340:0.0249054 341:-0.08956804 342:-0.017991813 343:0.02352272 344:-0.035310797 345:-0.022006221 346:-0.017257815 347:0.041142296 348:-0.014406125 349:0.032865975 350:0.0023770386 351:0.05167877 352:0.054807816 353:-0.04085522 354:0.0018641076 355:0.010274901 356:0.032881215 357:0.05241348 358:-0.045382407 359:-0.093861096 360:0.0032982081 361:0.011482423 362:-0.10361543 363:-0.078559875 364:0.016052492 365:0.046326198 366:-0.012551734 367:0.020586388 368:-0.012656374 369:0.014784126 370:-0.06679198 371:0.032671884 372:0.048335254 373:0.05208601 374:-0.0014488618 375:0.020583956 376:0.03893541 377:-0.02884931 378:-0.029053027 379:-0.033824228 380:-0.012217931 381:0.013396 382:0.019868542 383:-0.021729734 384:0.010529917 385:-0.015750293 386:0.043526493 387:0.021914478 388:-0.04100748 389:-0.04837279 390:-0.020141933 391:0.061464414 392:-0.060562268 393:0.02246805 394:0.0024836822 395:-0.018212559 396:-0.03130912 397:0.080664285 398:0.022289429 399:-0.03876493 400:0.01458737 401:-0.045230575 402:0.024136016 403:0.07384785 404:0.02158375 405:-0.029892229 406:0.001975248 407:0.0025849117 408:0.05790838 409:-0.0048486465 410:-0.025707465 411:0.017340144 412:-0.088824496 413:0.019915072 414:-0.10149925 415:0.068153344 416:-0.009041991 417:-0.01700349 418:0.014949835 419:0.0049256813 420:0.053265058 421:0.02359059 422:-0.012005356 423:0.045539822 424:-0.033220474 425:0.03430716 426:0.009737572 427:0.009035372 428:-0.01791974 429:0.09923334 430:-0.11466218 431:-0.08906754 432:0.012152891 433:-0.048993394 434:0.011353117 435:0.01821008 436:-0.06698581 437:-0.04502924 438:-0.0027231174 439:0.046452083 440:-0.07061801 441:-0.006806002 442:0.06444887 443:0.02757463 444:0.08047417 445:0.058181968 446:0.029024445 447:-0.0057576513 448:0.052416675 449:-0.017580679 450:-0.006382515 451:-0.002683051 452:-0.0029707532 453:-0.037392147 454:-0.09273395 455:0.015764538 456:-0.06322648 457:0.091002 458:0.030554187 459:0.047781046 460:0.09833685 461:0.059309255 462:0.025720978 463:-0.0053682625 464:-0.07489604 465:0.013172004 466:0.01593771 467:-0.032410756 468:0.006790612 469:0.04497323 470:0.047025092 471:-0.008380106 472:-0.012851978 473:0.0037321874 474:-0.020054134 475:0.04832253 476:-0.017111214 477:0.037060585 478:0.017569955 479:-0.01192714 480:0.021122433 481:-0.07071133 482:-0.021187937 483:0.05888104 484:-0.007967686 485:0.06128377 486:-0.07016085 487:0.002917001 488:0.05815433 489:-0.012567501 490:0.0028054377 491:-0.05962167 492:-0.090449035 493:-0.017419362 494:0.06936615 495:-0.009448128 496:0.07204723 497:0.021807157 498:0.0024976546 499:-0.04310568 500:0.004441164 501:-0.064785905 502:0.03672728 503:0.040924884 504:-0.023330485 505:0.03328625 506:-0.004864574 507:0.08650145 508:0.018836683 509:0.0011110592 510:-0.0057054525 511:0.0006347765 
1 1 0.3182131415046607 1 1 1 1 1 0.8779495956586151 0 1 0.1572404523740826 1 1 0.08073215407794276 0.8841962883828456 1 0.9693363951314095 1 0:0.03171085 1:0.08245789 2:-0.060147103 3:0.047605038 4:-0.008485477 5:-0.091174856 6:0.017965898 7:0.06790002 8:0.02714696 9:-0.02322166 10:0.04431802 11:0.022016006 12:0.019292763 13:-0.030089952 14:-0.020093322 15:0.031708974 16:0.03987829 17:0.04237039 18:-0.009650998 19:0.011049967 20:0.053509254 21:0.013450711 22:0.014396253 23:-0.063647665 24:-0.01338407 25:-0.056614578 26:0.07504761 27:-0.042917024 28:0.038830217 29:0.016576936 30:0.060199894 31:-0.010723489 32:-0.0047435653 33:0.020019254 34:0.038361486 35:-0.028300164 36:0.03753646 37:-0.009695319 38:0.010080626 39:0.025218654 40:-0.057091683 41:-0.042411715 42:0.05421636 43:0.017519765 44:-0.0479607 45:0.0026757088 46:-0.022159405 47:0.023495596 48:-0.060003035 49:0.053968213 50:0.008724901 51:-0.03438457 52:0.0048246603 53:-0.053411264 54:-0.009968112 55:-0.031004662 56:0.0028479928 57:-0.022580925 58:-0.0289048 59:0.04348168 60:-0.041970003 61:0.072070956 62:-0.0244768 63:0.05567503 64:-0.051019784 65:-0.02777767 66:-0.021600617 67:0.026368462 68:0.07302815 69:-0.12434707 70:0.001384576 71:-0.02560772 72:-0.038484704 73:0.0046854964 74:0.021108964 75:-0.072178 76:-0.020023983 77:-0.03380911 78:-0.011333205 79:-0.04796838 80:-0.009979126 81:-0.0417743 82:-0.004145066 83:-0.07344212 84:-0.07309408 85:0.0047276183 86:-0.040230583 87:-0.004115376 88:0.0065915356 89:-0.02570201 90:-0.050138228 91:0.023779197 92:-0.049798526 93:-0.07845581 94:0.013267229 95:0.032106545 96:-0.0322067 97:-0.046840094 98:-0.0997646 99:0.0018042186 100:-0.03496438 101:0.06911401 102:0.013109721 103:0.039427504 104:0.011301992 105:-0.010951023 106:-0.017366894 107:-0.0830548 108:0.0068644504 109:0.0018196213 110:0.055775587 111:0.017363796 112:0.043488268 113:-0.0044520046 114:0.061137203 115:-0.02069416 116:0.022849683 117:0.06179301 118:-0.03778468 119:0.007775835 120:0.0052942103 121:0.092684604 122:0.029015025 123:-0.05876091 124:-0.09391783 125:-0.023932964 126:-0.02558773 127:-0.052860696 128:0.03405103 129:0.018079016 130:0.008302364 131:0.056183267 132:0.033462677 133:-0.08158638 134:0.051053308 135:0.021394124 136:-0.08915532 137:-0.06558995 138:0.07051341 139:0.05089271 140:0.036137056 141:0.026015809 142:-0.050939385 143:-0.030509125 144:-0.035266835 145:0.035866365 146:-0.00726717 147:0.022886585 148:0.056636088 149:0.028035188 150:0.060538042 151:-0.00825166 152:-0.009795382 153:-0.004723639 154:0.05251236 155:0.010097064 156:-0.06540813 157:0.016084064 158:-0.030444378 159:-0.018118778 160:0.04088398 161:0.04816423 162:0.025793867 163:0.03727627 164:0.026259806 165:0.04085876 166:-0.037690315 167:0.031887185 168:-0.05941105 169:-0.0013704316 170:-0.07503284 171:0.020621637 172:0.026112525 173:0.05597854 174:0.040146474 175:-0.021969212 176:-0.057765648 177:-0.02639059 178:0.06106308 179:-0.021903515 180:-0.035632025 181:-0.028225416 182:0.030001353 183:-0.053356424 184:-0.040186457 185:0.03863182 186:0.031312138 187:0.016095947 188:0.013738607 189:0.06835134 190:-0.0032770198 191:0.040348962 192:0.07057096 193:0.024376273 194:0.03059106 195:0.0022554796 196:-0.028736636 197:0.037629083 198:0.045935664 199:-0.062205523 200:-0.0028915831 201:-0.08726816 202:0.07502224 203:-0.017009972 204:0.09159188 205:0.03560701 206:0.03352006 207:0.015285221 208:-0.06516889 209:-0.035879258 210:-0.016586732 211:0.05501839 212:0.015230329 213:0.02520088 214:-0.009926795 215:-0.026413683 216:0.023666425 217:-0.056787968 218:-0.021405961 219:0.0042143147 220:-0.021869965 221:-0.028644787 222:0.022238242 223:0.024644068 224:0.060048167 225:0.01574787 226:0.048021305 227:-0.0070627495 228:-0.039479397 229:0.01596576 230:0.0059120604 231:0.029751131 232:0.029488944 233:-0.05309156 234:-0.047177985 235:0.021416929 236:-0.042640463 237:0.03602829 238:0.05561759 239:-0.032682575 240:-0.029783731 241:-0.0077200853 242:0.05898274 243:-0.028556328 244:0.001664427 245:0.07011907 246:-0.006657051 247:0.032759532 248:-0.009446002 249:-0.005019621 250:-0.12289311 251:-0.0094701145 252:0.048746068 253:0.013056955 254:-0.08479299 255:-0.09026013 256:0.021732591 257:-0.011174591 258:0.013405052 259:-0.017276179 260:0.019593144 261:-0.043855432 262:-0.023057254 263:-0.0146819 264:-0.019917265 265:-0.03859195 266:-0.05656225 267:-0.009770203 268:-0.005752159 269:-0.056436487 270:0.033249553 271:0.018822802 272:0.10926629 273:0.029516215 274:-0.019579895 275:0.06659459 276:0.01679717 277:0.019671844 278:-0.021089872 279:0.016004266 280:-0.068404205 281:0.021482857 282:0.01807321 283:-0.033870813 284:-0.04197966 285:-0.03293389 286:0.06714012 287:-0.050630935 288:-0.039300714 289:0.08112071 290:-0.050601274 291:-0.06267804 292:-0.06640704 293:0.023056144 294:-0.023046553 295:-0.0049390215 296:-0.043892533 297:-0.046882004 298:0.05112533 299:-0.01462057 300:-0.0027718258 301:0.00052676885 302:-0.048809715 303:-0.051113576 304:-0.013341546 305:-0.0006301637 306:0.0019571765 307:-0.013035532 308:0.009172497 309:0.032541785 310:0.014064812 311:0.019459883 312:0.013173338 313:-0.021122206 314:0.05770398 315:0.019552777 316:0.03078393 317:-0.0038130118 318:0.07529872 319:-0.066575356 320:-0.0072857346 321:-0.07804183 322:-0.041061986 323:0.077742964 324:0.038774416 325:0.07373563 326:0.026483038 327:0.087211706 328:0.022895908 329:0.04480804 330:0.019974507 331:0.038289096 332:-0.12431561 333:0.03270159 334:-0.05433132 335:0.018119149 336:0.018554065 337:-0.046779364 338:0.023079151 339:0.066236645 340:0.03997831 341:-0.11353904 342:-0.007683398 343:0.036777068 344:0.026067406 345:-0.013054183 346:0.014244764 347:0.024505906 348:-0.020292846 349:-0.007866357 350:-0.026705667 351:0.04606872 352:0.08885562 353:-0.035397086 354:0.013914974 355:0.0025320621 356:0.031500094 357:0.06517692 358:-0.036695756 359:-0.090343766 360:0.034328233 361:-0.039171077 362:-0.07963368 363:-0.08237637 364:0.063722454 365:0.048407827 366:-0.05595191 367:0.014346824 368:-0.029983781 369:-0.0011888803 370:-0.08751424 371:-0.029438738 372:0.007170001 373:0.009193943 374:-0.004007763 375:0.06453392 376:0.04937874 377:0.01935194 378:-0.053894512 379:0.0027399783 380:-0.072142184 381:0.030546336 382:0.042726174 383:-0.041631907 384:0.03178796 385:-0.021071155 386:0.00944174 387:0.028342852 388:-0.068239585 389:-0.06841335 390:0.013533956 391:0.048715822 392:-0.083488 393:0.043208063 394:0.035361424 395:-0.024394056 396:-0.0022627278 397:0.14822334 398:0.0029449 399:-0.01894817 400:0.015637048 401:-0.052686017 402:0.043649264 403:0.094221264 404:-0.0024600269 405:-0.013286653 406:-0.037156332 407:0.016455026 408:0.030683495 409:-0.0065381257 410:-0.0071148383 411:-0.0059961593 412:-0.06427203 413:0.023090176 414:-0.08252968 415:0.01540405 416:0.029472047 417:-0.002176314 418:0.043378063 419:-0.05668253 420:0.04479779 421:0.07022246 422:-0.008444528 423:-0.0051433174 424:-0.055103153 425:0.034553558 426:0.017191868 427:0.02458277 428:0.04338948 429:0.07853887 430:-0.11832668 431:-0.010698674 432:-0.0052213855 433:-0.025278939 434:0.026714884 435:0.025500942 436:-0.04832424 437:-0.04705208 438:-0.0049265763 439:0.034686767 440:-0.041448947 441:0.019195518 442:0.048850045 443:-0.011661906 444:0.038382087 445:0.032042526 446:0.01810791 447:-0.010659941 448:0.032247342 449:-0.017763453 450:-0.028596109 451:-0.02435655 452:-0.010761965 453:0.010408843 454:-0.07318771 455:0.027728751 456:-0.025059035 457:0.055571955 458:0.01707991 459:0.06409364 460:0.07394809 461:0.028404597 462:0.03125285 463:0.009272499 464:-0.08160205 465:0.009231023 466:0.028160626 467:-0.05254971 468:0.021234555 469:0.04890327 470:0.08810424 471:0.024891756 472:0.06887746 473:-0.014376453 474:-0.06523481 475:0.03876657 476:-0.01748758 477:0.038005542 478:0.0033280991 479:-0.029497294 480:0.007352057 481:-0.03771192 482:0.03101411 483:0.066221066 484:-0.048445456 485:0.032786544 486:-0.040714845 487:0.072305925 488:-0.021455795 489:-0.04151742 490:0.021313226 491:-0.08351998 492:-0.053722993 493:-0.06064133 494:0.12110575 495:0.010331896 496:0.05621513 497:0.043527577 498:0.043392736 499:-0.04978585 500:0.027226342 501:-0.07798488 502:0.03495516 503:-0.00034166366 504:-0.030616453 505:0.06943242 506:0.027621774 507:0.06878052 508:-0.003887565 509:-0.011963114 510:0.0070150425 511:-0.008155804 
0 0 0 0 0 0 0.4081785984146848 0 0.03473857469193462 0.1475285154703077 0 0 0 0 0 0 0 0 0 0:0.043857638 1:0.07371309 2:-0.07209696 3:0.014801633 4:-0.020600531 5:-0.091799065 6:0.031265944 7:0.06455179 8:0.032403294 9:-0.0313968 10:0.054099407 11:0.009579445 12:0.010623896 13:-0.058622286 14:-0.02659267 15:0.043883163 16:0.053884212 17:0.02757077 18:-0.006311343 19:0.011454214 20:0.03349516 21:-0.01829014 22:-0.0053635277 23:-0.06437821 24:-0.021463975 25:-0.071161635 26:0.050253045 27:-0.046279777 28:-0.0037234945 29:0.044771712 30:0.04840387 31:-0.011561604 32:-0.014754768 33:0.034746576 34:0.033940006 35:-0.023433432 36:0.048943784 37:0.011032013 38:0.00132076 39:0.047378767 40:-0.052672613 41:-0.04228214 42:0.03237951 43:0.04680602 44:-0.04060209 45:-0.01612448 46:-0.006499186 47:0.027483022 48:-0.037841406 49:0.04722091 50:0.0025087039 51:-0.030642105 52:-0.016001504 53:-0.03816865 54:0.00037554465 55:0.006276596 56:-0.020787552 57:-0.012397116 58:-0.024825035 59:0.030074738 60:-0.036387134 61:0.078835696 62:-0.03163464 63:0.035132688 64:-0.028593687 65:-0.01350921 66:-0.00044009602 67:0.027375216 68:0.072665855 69:-0.12280861 70:-0.00013765618 71:-0.026940022 72:-0.06128186 73:-0.017746897 74:-0.001302734 75:-0.072407134 76:-0.023451405 77:-0.03521127 78:0.016277744 79:-0.047969446 80:-0.044330645 81:-0.021358274 82:-0.0010554562 83:-0.061465237 84:-0.07220903 85:0.006652917 86:-0.04672236 87:0.00014834941 88:0.03262729 89:-0.02515917 90:-0.05308956 91:0.011056091 92:-0.060499918 93:-0.08557294 94:0.00648438 95:0.010079394 96:-0.026014116 97:-0.039304607 98:-0.09163817 99:-0.0045130025 100:-0.0424126 101:0.051410977 102:-0.007774056 103:0.02838495 104:0.018229501 105:0.017368555 106:0.00012813993 107:-0.072442666 108:0.0024513395 109:0.0017525168 110:0.029649612 111:0.0060090283 112:0.04324351 113:3.8146387e-05 114:0.04639081 115:-0.003967153 116:0.056148525 117:0.060164794 118:-0.03636242 119:0.00020033195 120:-0.02769007 121:0.0709334 122:0.043226153 123:-0.025148017 124:-0.08474054 125:-0.002325676 126:-0.03704133 127:-0.054670665 128:0.020161508 129:0.021623693 130:-0.022016635 131:0.04351016 132:0.046133187 133:-0.09926091 134:0.071753986 135:-0.008950427 136:-0.09896146 137:-0.06370945 138:0.08945254 139:0.043162026 140:0.0483614 141:0.007288852 142:-0.061475657 143:-0.018710341 144:-0.05145646 145:0.03453223 146:0.0011391599 147:0.025100702 148:0.0532003 149:0.06773105 150:0.067732796 151:-0.0389705 152:0.0012470428 153:-0.004393675 154:0.029707067 155:0.015390721 156:-0.03143804 157:0.007829064 158:-0.005353162 159:-0.005884996 160:0.04116659 161:0.024114871 162:-0.0022928473 163:0.035326768 164:0.012267592 165:0.037981 166:-0.025013702 167:0.034607824 168:-0.021253373 169:-0.003056396 170:-0.05692918 171:0.038212396 172:0.0013210203 173:0.06816224 174:0.025468081 175:0.012573405 176:-0.044990655 177:-0.007214648 178:0.07290598 179:-0.045778245 180:-0.029096043 181:-0.024773201 182:0.043739967 183:-0.020364253 184:-0.031799167 185:0.054750547 186:0.03198386 187:0.057514496 188:0.016676804 189:0.066312686 190:0.017619519 191:0.014763528 192:0.04267789 193:0.033385586 194:0.025828065 195:0.0025096128 196:0.0026042708 197:0.05863077 198:0.027825912 199:-0.053049944 200:-0.0023068227 201:-0.08980873 202:0.09072972 203:-0.018449495 204:0.11267725 205:0.040633433 206:0.03154934 207:0.03669327 208:-0.058448233 209:-0.036352817 210:-0.028915921 211:0.027843015 212:0.027204027 213:0.008175945 214:-0.038591802 215:-0.04282492 216:0.014574782 217:-0.0492747 218:-0.021374334 219:0.036770456 220:-0.026265156 221:-0.034882475 222:0.017907077 223:0.02948539 224:0.047196608 225:0.021190483 226:0.047890607 227:-0.0051246746 228:-0.0673146 229:0.020545995 230:-0.005829075 231:0.023961991 232:0.010099883 233:-0.07134763 234:-0.018635921 235:0.030836139 236:-0.030384084 237:0.034617905 238:0.039297577 239:-0.04488194 240:-0.0029164066 241:0.006084871 242:0.06791772 243:-0.030065736 244:-0.0018997111 245:0.050960757 246:-0.0015001164 247:0.037447993 248:-0.0076900222 249:-0.014309033 250:-0.1143733 251:0.017389705 252:0.045785613 253:0.00791923 254:-0.10449792 255:-0.086557046 256:0.03360189 257:-0.015316319 258:0.003935683 259:-0.019907689 260:0.041940022 261:-0.045826234 262:-0.013623899 263:0.0023452984 264:-0.024819763 265:-0.011241891 266:-0.050673287 267:-0.0058012335 268:-0.020125512 269:-0.071670875 270:0.0013015217 271:0.012624415 272:0.07298963 273:0.026715513 274:-0.058132667 275:0.0530195 276:0.0029005175 277:-0.025017956 278:-0.026858581 279:-0.02060312 280:-0.07576671 281:0.029919099 282:0.029712679 283:-0.01912609 284:-0.023724603 285:-0.035878696 286:0.054958533 287:-0.033719696 288:-0.037620354 289:0.0756241 290:-0.06188297 291:-0.040569987 292:-0.05305903 293:0.02674372 294:0.00181615 295:-0.0067001306 296:-0.028292332 297:-0.035347376 298:0.081494324 299:-0.025803247 300:-0.016692271 301:0.011046422 302:-0.061053943 303:-0.05717575 304:-0.014498645 305:0.022255432 306:0.010107914 307:-0.01864282 308:0.022930654 309:0.070020206 310:0.03820322 311:0.017465396 312:0.026789768 313:-0.05204861 314:0.056434903 315:-0.00013310941 316:0.014362903 317:0.029198645 318:0.06257283 319:-0.093293935 320:-0.009499801 321:-0.067708984 322:-0.03395762 323:0.08491994 324:0.02740701 325:0.078202896 326:0.023033284 327:0.08873333 328:0.02696212 329:0.06508626 330:0.015265362 331:0.05825941 332:-0.12426151 333:0.03763018 334:-0.033673484 335:0.024966476 336:0.010573772 337:-0.04592988 338:0.04023412 339:0.0739174 340:0.039404977 341:-0.09361096 342:-0.026872722 343:0.026505806 344:-0.019154917 345:-0.006996628 346:0.023049075 347:0.014904371 348:-0.027287971 349:-0.02061251 350:-0.024711128 351:0.07361387 352:0.09854742 353:-0.0604708 354:0.009966089 355:-0.0021246737 356:0.06397466 357:0.052409112 358:-0.02571013 359:-0.10521 360:-0.007977751 361:-0.016555017 362:-0.080403656 363:-0.09158768 364:0.054966006 365:0.05287626 366:-0.035588447 367:0.004915174 368:-0.017560322 369:0.012915943 370:-0.11287396 371:-0.0251221 372:0.0032331415 373:0.0041495264 374:-0.019955114 375:0.050811827 376:0.05954339 377:0.012391317 378:-0.050015457 379:-0.02197621 380:-0.046626538 381:0.009215705 382:0.024763899 383:-0.035025056 384:0.042184487 385:0.004547693 386:0.0378743 387:0.025504204 388:-0.06616786 389:-0.069772065 390:0.0005985 391:0.04976768 392:-0.09117476 393:0.04167291 394:0.021504333 395:-0.02394133 396:-0.006072076 397:0.11201717 398:0.0008078464 399:-0.020731831 400:0.04105559 401:-0.04176345 402:0.048560675 403:0.08908398 404:-0.0014172149 405:-0.020378256 406:-0.033426106 407:-0.015842007 408:0.028318468 409:-0.019774353 410:-0.010587469 411:-0.008465028 412:-0.07876679 413:0.0063649863 414:-0.07964023 415:0.04074152 416:0.038041905 417:-0.0026416797 418:0.0428902 419:-0.0334556 420:0.055655472 421:0.07744252 422:-0.0080839675 423:0.036236912 424:-0.034119707 425:0.016222248 426:0.02141262 427:0.042304862 428:0.020165129 429:0.08483965 430:-0.11211278 431:-0.031729195 432:-0.013038481 433:-0.04374112 434:0.0228123 435:0.03988884 436:-0.033896007 437:-0.027832769 438:-0.010282951 439:0.045836847 440:-0.05662968 441:0.0019481372 442:0.07430339 443:0.011761745 444:0.062819436 445:0.02770273 446:0.05637011 447:-0.0214577 448:0.016388541 449:-0.004255576 450:-0.022144692 451:7.422654e-05 452:-0.008607114 453:-0.0017351287 454:-0.08207766 455:0.0033077053 456:-0.03589225 457:0.059225395 458:-0.002937689 459:0.034299217 460:0.08021925 461:0.034407314 462:0.039821956 463:0.008029316 464:-0.10946473 465:-0.0039125714 466:0.031926274 467:-0.024348252 468:0.026861273 469:0.023110269 470:0.09399223 471:0.03548787 472:0.0635474 473:-0.0014968908 474:-0.06909962 475:0.017130382 476:-0.039905675 477:0.049407195 478:-0.0060448153 479:-0.05293004 480:-0.013909093 481:-0.03956246 482:0.043668963 483:0.059307996 484:-0.029427977 485:0.05929613 486:-0.04773536 487:0.04961824 488:-0.019198619 489:-0.044013057 490:0.033381432 491:-0.0681691 492:-0.07224695 493:-0.04388798 494:0.0921543 495:0.015968923 496:0.070567206 497:0.037199993 498:0.03819716 499:-0.04051529 500:0.015714077 501:-0.06827114 502:0.019220494 503:0.018408915 504:-0.028246883 505:0.059490062 506:0.0076313284 507:0.07496106 508:-0.004892896 509:0.0053383308 510:-0.010425645 511:0.0019521469 
0 0.9065069101367725 0.1813976941914328 0 1 0 1 1 0.117476201136277 0.1890159134574692 0.05849541529774115 0 0.8637334560563199 0 0.4359877486466185 0.7801941618875303 0 0 0.9766228581813098 0:0.01726137 1:0.07847024 2:-0.051402595 3:0.04332458 4:0.023817686 5:-0.07437452 6:0.025175724 7:0.035353135 8:0.014085051 9:-0.026600717 10:0.053780034 11:-0.017248757 12:-0.011971617 13:-0.05923549 14:-0.009778468 15:0.050563037 16:0.02904353 17:0.025267567 18:-0.008661897 19:-0.012089002 20:0.061778586 21:0.003878045 22:0.013694862 23:-0.023991851 24:-0.030471133 25:-0.015065216 26:0.0927764 27:-0.06613479 28:-0.015755061 29:0.04351442 30:0.03226938 31:0.003980561 32:-0.02002415 33:0.035479166 34:0.028260823 35:-0.01709606 36:0.07923756 37:0.011496712 38:-0.020981178 39:0.033174943 40:-0.05825695 41:-0.046274584 42:0.022640245 43:0.052531626 44:-0.042791415 45:-0.021906208 46:0.021261448 47:0.043823306 48:-0.041900437 49:0.07207308 50:0.009612902 51:-0.014146123 52:-0.027303835 53:-0.073156826 54:0.022729818 55:0.012736908 56:0.010518527 57:-0.046107575 58:0.001384506 59:0.027518913 60:-0.03478903 61:0.04857866 62:-0.019422272 63:-0.0075823795 64:-0.015999341 65:-0.02347706 66:-0.043730702 67:0.03805161 68:0.059450045 69:-0.11394052 70:-0.004834253 71:0.0038631975 72:-0.051121145 73:-0.014980233 74:0.030792061 75:-0.039176878 76:-0.02455545 77:-0.04843044 78:-0.0022015544 79:-0.044430386 80:-0.026139477 81:-0.0462123 82:0.02647065 83:-0.050311655 84:-0.08665527 85:0.0062411875 86:-0.045496687 87:0.0049870317 88:0.050772395 89:-0.043542992 90:-0.08104619 91:0.029444732 92:-0.066686645 93:-0.03424599 94:0.017840266 95:-0.017757636 96:-0.04648259 97:-0.049263958 98:-0.07056136 99:-0.009192571 100:-0.023096543 101:0.039061483 102:-0.010288192 103:0.031323817 104:0.008726922 105:0.005646393 106:-0.027967684 107:-0.11355137 108:0.00042240767 109:-0.024408652 110:0.029041361 111:0.020612048 112:0.029574279 113:0.006148393 114:0.03924461 115:-0.010881792 116:0.041635484 117:0.050594013 118:-0.034969453 119:0.0030758062 120:0.011629924 121:0.05836567 122:0.03925541 123:-0.020845285 124:-0.07810409 125:-0.01956841 126:-0.037288528 127:-0.030228443 128:0.082041055 129:0.011208101 130:0.029670382 131:0.03460453 132:0.04635603 133:-0.07718609 134:0.054707915 135:-0.000575526 136:-0.10717895 137:-0.06518704 138:0.046925727 139:0.060280398 140:0.04606619 141:0.04218956 142:-0.07025267 143:-0.03786475 144:-0.017438764 145:0.047343753 146:0.022011813 147:-0.0018696396 148:0.069159664 149:0.072700664 150:0.03570796 151:-0.022826063 152:0.014303515 153:-0.02604 154:-0.0012219214 155:0.008460365 156:-0.041789643 157:0.024145639 158:0.00032678535 159:-0.036084156 160:0.020096133 161:0.003516434 162:-0.026453422 163:0.053588983 164:-0.010418666 165:0.020349741 166:-0.030368185 167:0.03260336 168:-0.035381995 169:-0.04832176 170:-0.0038014657 171:0.022860914 172:0.006255188 173:0.085951366 174:0.02662073 175:0.025605014 176:-0.065682955 177:-0.0073356214 178:0.058192644 179:-0.004180296 180:3.765239e-05 181:-0.025585817 182:0.050212394 183:-0.019627038 184:-0.037056517 185:0.040821142 186:0.03324488 187:0.08329385 188:0.009333239 189:0.060725726 190:0.0073087495 191:0.031595644 192:0.05826304 193:0.032098126 194:0.018034765 195:-0.0050517446 196:-0.013100714 197:0.06834333 198:0.0010447598 199:-0.0268256 200:-0.026650228 201:-0.09651158 202:0.081686966 203:-0.006764159 204:0.099004924 205:0.04819329 206:0.06378775 207:0.025916435 208:-0.061625216 209:-0.07238498 210:0.0025498488 211:0.01162761 212:0.041361902 213:0.047266908 214:-0.040395144 215:-0.02290154 216:0.007636157 217:-0.06517247 218:-0.012571068 219:0.025792202 220:-0.042683776 221:-0.051606987 222:0.013274192 223:0.037670884 224:0.0641511 225:0.03383694 226:-0.0033818183 227:-0.009944406 228:-0.02310227 229:0.034111533 230:-0.029489484 231:0.041190077 232:-0.0199672 233:-0.047154143 234:-0.011618166 235:0.00214348 236:-0.038666435 237:0.052919038 238:0.041690804 239:-0.049837224 240:-0.017893584 241:-0.0023287116 242:0.05259634 243:-0.032176405 244:0.0038358336 245:0.07773203 246:-0.013173965 247:0.05154225 248:0.028838795 249:-0.011076352 250:-0.10525683 251:-4.0279356e-05 252:0.02215542 253:-0.023190062 254:-0.091388375 255:-0.10277498 256:0.0036156457 257:0.012283805 258:0.017805124 259:-0.05346551 260:0.043020684 261:-0.047850136 262:-0.0060176514 263:0.04071446 264:-0.03480263 265:-0.033354778 266:-0.032734904 267:-0.03590393 268:0.0011062651 269:-0.06303053 270:0.032108877 271:0.025034174 272:0.06441105 273:0.011519924 274:-0.05420037 275:0.05540642 276:0.0023882273 277:0.016542617 278:-0.034785006 279:0.0031881395 280:-0.048921756 281:-0.011119177 282:0.01955756 283:-0.030874731 284:-0.033879105 285:-0.019842647 286:0.034667816 287:-0.08535971 288:-0.012007072 289:0.08123975 290:-0.06221661 291:-0.053551782 292:-0.056118578 293:0.028469676 294:-0.02072906 295:-0.014428394 296:-0.05489898 297:-0.062428676 298:0.09337501 299:-0.028115312 300:-0.018582944 301:0.017499138 302:-0.037858874 303:-0.03639283 304:-0.010825785 305:0.00346204 306:0.014214908 307:0.016536875 308:-0.008660859 309:0.068560354 310:0.052211035 311:0.02429779 312:0.023899814 313:-0.061695036 314:0.05286861 315:0.04160723 316:0.02424478 317:0.045496427 318:0.0668087 319:-0.07120657 320:0.007126308 321:-0.052554768 322:-0.034758292 323:0.07112337 324:0.043051634 325:0.08034546 326:0.04694967 327:0.09190602 328:0.05009411 329:0.06255419 330:0.022320895 331:0.028731216 332:-0.10332895 333:0.04011575 334:-0.075563565 335:0.0074580475 336:0.006560966 337:-0.04626894 338:0.024616288 339:0.05530506 340:0.022519559 341:-0.07574087 342:-0.0246645 343:0.05298224 344:-0.0075741196 345:0.015854247 346:-0.0032819088 347:0.052700803 348:-0.032978807 349:-0.046160858 350:-0.041966703 351:0.049460948 352:0.07907459 353:-0.084787674 354:0.00883438 355:0.014121547 356:0.031613674 357:0.033205647 358:-0.046479937 359:-0.11004958 360:0.002340768 361:-0.01898664 362:-0.07077133 363:-0.09900124 364:0.058270656 365:0.025817921 366:-0.045749307 367:-0.008321899 368:-0.02738947 369:0.0047928835 370:-0.09167035 371:-0.011152717 372:-0.004295235 373:-0.029095735 374:-0.03169625 375:0.026325418 376:0.0484625 377:0.00037664638 378:-0.06779909 379:-0.022484092 380:-0.07466969 381:-0.0093196295 382:0.03661559 383:-0.02774746 384:0.029215839 385:0.011822125 386:0.030067429 387:0.009758401 388:-0.05805067 389:-0.06962584 390:-0.022059474 391:0.03872581 392:-0.064545095 393:0.018494856 394:0.029527187 395:-0.0347061 396:0.007567514 397:0.12906456 398:-0.014074504 399:-0.046895504 400:0.011385954 401:-0.02985053 402:0.037189543 403:0.0978965 404:0.010482988 405:-0.010965098 406:-0.047283597 407:-0.010264983 408:0.020007052 409:0.04462603 410:-0.029073639 411:-0.018943314 412:-0.07240686 413:0.044666473 414:-0.05559705 415:0.044403486 416:0.029639833 417:-0.018800449 418:0.03148713 419:-0.0240734 420:0.03562692 421:0.032237973 422:-0.0021491132 423:-0.0031349207 424:-0.0623139 425:0.020842982 426:0.019764477 427:0.049225446 428:0.038557034 429:0.086302966 430:-0.10832643 431:-0.0418233 432:-0.033842396 433:-0.028502434 434:0.008138966 435:0.014676627 436:-0.02844396 437:-0.009300776 438:0.0029067048 439:0.04848918 440:-0.06956335 441:0.020200783 442:0.03542972 443:-0.012807691 444:0.06738705 445:0.027122075 446:0.028580308 447:-0.006561836 448:0.014931678 449:-0.022310952 450:-0.0084627 451:0.029029887 452:0.0047922544 453:0.010431119 454:-0.07117393 455:0.009234073 456:-0.049959794 457:0.06516519 458:0.020418774 459:0.06271536 460:0.09612093 461:0.054319687 462:0.028312894 463:0.021532701 464:-0.08612062 465:-0.03169829 466:0.012999936 467:-0.0210154 468:0.046382677 469:-0.00541286 470:0.06812738 471:0.032158196 472:0.051363524 473:0.00080741063 474:-0.08416784 475:0.009865686 476:-0.007839246 477:0.058041323 478:-0.036187425 479:-0.053325716 480:-0.018461078 481:-0.020428604 482:0.04063841 483:0.04610103 484:-0.018525437 485:0.06630557 486:-0.03983342 487:0.04510006 488:-0.039732803 489:-0.05181798 490:0.049277756 491:-0.08291172 492:-0.049278207 493:-0.043481026 494:0.089730576 495:0.02502952 496:0.065308444 497:0.055880837 498:0.06411869 499:-0.039694123 500:0.027099995 501:-0.068519354 502:0.060322396 503:0.0016633868 504:-0.028726147 505:0.062449515 506:0.020111758 507:0.07421244 508:-0.001583149 509:0.02357439 510:0.018969426 511:-0.014655 
0.4953090580881421 0 1 0.04680460895527975 0 1 1 0.2117095220077655 0.7116517375332602 1 1 0.9150020326880826 0 0 1 1 1 0 1 0:0.023034167 1:0.070063055 2:-0.06529699 3:0.031383943 4:0.022184687 5:-0.07440896 6:0.03650467 7:0.045713313 8:0.032448076 9:-0.031861175 10:0.060008697 11:-0.011498329 12:0.005838493 13:-0.06318022 14:-0.012385494 15:0.048044305 16:0.048937652 17:0.030903308 18:0.0009253928 19:-0.011020697 20:0.045727603 21:-0.012804329 22:-0.0009468423 23:-0.03948176 24:-0.025825523 25:-0.03333695 26:0.07594078 27:-0.061002716 28:-0.002805928 29:0.064676814 30:0.05955857 31:-0.0070762406 32:-0.0038163427 33:0.036313824 34:0.028760044 35:-0.024590623 36:0.042880073 37:0.018881809 38:-0.02612207 39:0.06320915 40:-0.05399859 41:-0.064654894 42:0.005737698 43:0.06706582 44:-0.03811545 45:-0.01748932 46:0.016042715 47:0.0488103 48:-0.03765057 49:0.04893515 50:0.013482721 51:-0.019683665 52:-0.031565264 53:-0.06883725 54:0.014813383 55:0.019410627 56:0.0030377132 57:-0.0466345 58:-0.013280488 59:0.026124235 60:-0.034547035 61:0.05459982 62:-0.018800952 63:-0.0016540914 64:-0.023672903 65:-0.03021643 66:-0.037148204 67:0.021531327 68:0.036183838 69:-0.11712317 70:0.00786113 71:0.0050054635 72:-0.077834815 73:-0.04252681 74:0.028301299 75:-0.040701896 76:-0.014030167 77:-0.036827672 78:0.015147086 79:-0.03850919 80:-0.039699282 81:-0.039792202 82:0.013609999 83:-0.045639034 84:-0.06810947 85:-0.004112806 86:-0.03161864 87:0.024762977 88:0.06529654 89:-0.039378285 90:-0.081755616 91:-0.005892358 92:-0.069570415 93:-0.036358707 94:0.03868922 95:-0.03305305 96:-0.050369684 97:-0.035781734 98:-0.07921742 99:0.0042018597 100:-0.0051333746 101:0.037611492 102:0.0034795464 103:0.038528617 104:0.02590746 105:0.027512563 106:-0.021381073 107:-0.08308807 108:0.0324711 109:-0.0011070172 110:0.019247951 111:0.023278877 112:0.020328963 113:-0.017769562 114:0.040222 115:0.001862855 116:0.042295773 117:0.053174715 118:-0.028587753 119:0.01573466 120:0.015280161 121:0.04412097 122:0.021158645 123:-0.017107453 124:-0.0957544 125:-0.018292718 126:-0.039511506 127:-0.049476717 128:0.071747884 129:0.023543688 130:0.032246955 131:0.034115482 132:0.04910299 133:-0.08492924 134:0.068783864 135:-0.0047659907 136:-0.09210664 137:-0.06549841 138:0.06564219 139:0.049806073 140:0.0558796 141:0.0402049 142:-0.077359796 143:-0.035866246 144:-0.004917772 145:0.03583628 146:0.03452942 147:0.007524503 148:0.044556666 149:0.057132732 150:0.041406143 151:-0.030143434 152:0.032693192 153:-0.012659958 154:0.0007368805 155:-0.011653059 156:-0.029478285 157:0.008713005 158:0.018156828 159:-0.035101138 160:0.011508783 161:0.012984231 162:-0.034267735 163:0.050048616 164:0.0029207342 165:0.022461671 166:-0.014036801 167:0.050909013 168:-0.03944602 169:-0.03953934 170:-0.0048182346 171:0.029342394 172:0.013109721 173:0.08427562 174:0.022526046 175:0.043174583 176:-0.06975363 177:-0.022891905 178:0.06567645 179:-0.023958294 180:0.001991393 181:-0.024805816 182:0.042427443 183:0.003975718 184:-0.0018069338 185:0.060553014 186:0.044371147 187:0.076266535 188:-0.0047572763 189:0.053509407 190:2.4273868e-07 191:0.014294565 192:0.056583397 193:0.021143105 194:0.040280916 195:-0.025759721 196:-0.007826104 197:0.0609018 198:0.01938678 199:-0.03923224 200:-0.009369176 201:-0.10937592 202:0.10124719 203:-0.024933245 204:0.085608095 205:0.032633673 206:0.06348271 207:0.030480925 208:-0.039498463 209:-0.06404983 210:-0.030977352 211:-0.0029999304 212:0.019828621 213:0.025452953 214:-0.03501971 215:-0.034587678 216:0.002989506 217:-0.042422287 218:0.009444895 219:0.027736094 220:-0.03562855 221:-0.04807897 222:0.0005996194 223:0.043500874 224:0.045511223 225:0.003485441 226:0.0055687265 227:-0.016537694 228:-0.052916553 229:0.01833141 230:-0.05290639 231:0.022583768 232:-0.007270603 233:-0.057824206 234:-0.014520711 235:0.014726447 236:-0.034323815 237:0.051159896 238:0.033955727 239:-0.051743574 240:-0.01087064 241:-0.008659417 242:0.06610902 243:-0.04833202 244:0.017780013 245:0.075382575 246:-0.018682089 247:0.036739495 248:0.013892109 249:-0.007840963 250:-0.08461159 251:0.022339027 252:0.03611836 253:-0.014050609 254:-0.11716379 255:-0.07677477 256:0.028646752 257:0.009563744 258:0.027521813 259:-0.039292756 260:0.0275724 261:-0.05317959 262:-0.005038098 263:0.03811976 264:-0.021200255 265:-0.02658582 266:-0.0091784345 267:-0.01502831 268:-0.013677504 269:-0.0703157 270:0.022634597 271:0.013837208 272:0.04881517 273:0.0029822993 274:-0.06393276 275:0.04871414 276:0.008266298 277:-0.0024867884 278:-0.058181394 279:-0.013711902 280:-0.0439317 281:-0.0038205595 282:0.035821896 283:-0.018085165 284:-0.015775554 285:-0.01981793 286:0.032946233 287:-0.07385432 288:-0.026136803 289:0.05851599 290:-0.046679053 291:-0.06242955 292:-0.05664772 293:0.010588646 294:-0.016350456 295:-0.004073613 296:-0.03292973 297:-0.05861513 298:0.12197726 299:-0.027851783 300:-0.006557794 301:0.012405571 302:-0.05370034 303:-0.060941372 304:-0.033299837 305:0.008366299 306:0.019270318 307:0.015935173 308:-0.00417058 309:0.079632066 310:0.03515044 311:0.007164114 312:0.03731643 313:-0.056015868 314:0.039553102 315:0.015671788 316:0.021809006 317:0.034739673 318:0.06826113 319:-0.09846182 320:-0.015047155 321:-0.055703696 322:-0.03841337 323:0.056799415 324:0.02092737 325:0.07470657 326:0.042104367 327:0.10722289 328:0.07000555 329:0.071492806 330:0.018567707 331:0.058883127 332:-0.10036481 333:0.039960623 334:-0.05839518 335:0.014127691 336:0.011142193 337:-0.045270767 338:0.013601954 339:0.07346114 340:0.01422754 341:-0.083187975 342:-0.03316525 343:0.061866283 344:-0.012482292 345:0.016679063 346:-0.0026328124 347:0.040182848 348:-0.03618808 349:-0.04964073 350:-0.01204062 351:0.06342197 352:0.075397156 353:-0.08099548 354:0.01482797 355:0.0019407221 356:0.045393366 357:0.037780825 358:-0.0354071 359:-0.12161051 360:-0.028321365 361:-0.013991483 362:-0.07787012 363:-0.095490895 364:0.048262727 365:0.043692116 366:-0.033235464 367:0.0035075687 368:-0.02244513 369:0.011525842 370:-0.10706382 371:-0.036615655 372:-0.006442747 373:-0.020063667 374:-0.016399575 375:0.005459862 376:0.055818148 377:0.015181239 378:-0.066103324 379:-0.03279869 380:-0.061909232 381:-0.019777624 382:-0.008466688 383:-0.019148814 384:0.015826449 385:0.011444074 386:0.027335577 387:0.008622947 388:-0.0651137 389:-0.07064259 390:-0.018851086 391:0.03041275 392:-0.0924056 393:0.01846241 394:0.025369577 395:-0.039930753 396:-0.0025469672 397:0.11480518 398:0.009953773 399:-0.048506375 400:0.021294426 401:-0.012157619 402:0.059166655 403:0.09972543 404:0.014787772 405:0.0067048576 406:-0.04446551 407:-0.023242528 408:0.01780444 409:0.0010551537 410:-0.014715531 411:-0.009462262 412:-0.06855238 413:0.013028024 414:-0.05949761 415:0.04608013 416:0.04177499 417:-0.0030124972 418:0.039187737 419:-0.018408177 420:0.054272525 421:0.04019112 422:-0.0036521559 423:0.025278853 424:-0.064536296 425:0.01872603 426:0.0035376984 427:0.04201544 428:0.022047095 429:0.08620414 430:-0.10832113 431:-0.04516612 432:-0.047065515 433:-0.019897055 434:-6.248388e-05 435:0.02903921 436:-0.042402945 437:-0.009095669 438:-0.009983845 439:0.0693485 440:-0.06872664 441:0.009070974 442:0.04548479 443:-0.010782704 444:0.07426524 445:0.0049093184 446:0.031628262 447:-0.031624228 448:-0.003549043 449:-0.004773079 450:-0.011711552 451:0.022949463 452:-0.0028421974 453:0.025756512 454:-0.071462035 455:-0.006360876 456:-0.065206945 457:0.06775065 458:-0.0025468771 459:0.06711827 460:0.08232515 461:0.051703423 462:0.045967966 463:0.02689327 464:-0.07316881 465:-0.01636082 466:0.013162369 467:-0.024744522 468:0.03655763 469:-0.0077352594 470:0.06740839 471:0.010476829 472:0.052088182 473:0.003917827 474:-0.09832379 475:0.010930904 476:-0.009311583 477:0.050431177 478:-0.010051061 479:-0.05072476 480:-0.0041651954 481:-0.03768151 482:0.016111573 483:0.038382154 484:-0.01145883 485:0.07635704 486:-0.04885536 487:0.047880474 488:-0.029469801 489:-0.053952154 490:0.04196311 491:-0.075473204 492:-0.049724687 493:-0.037335455 494:0.06883769 495:0.027420752 496:0.056995668 497:0.041456357 498:0.056290094 499:-0.045901854 500:0.021853622 501:-0.080494 502:0.06499431 503:-0.013464412 504:-0.036103822 505:0.06715407 506:0.029432826 507:0.07406863 508:-0.0033006987 509:-0.00031266955 510:0.010610932 511:-0.00504987 
0.1364947079788123 0 0 0.9375633031891129 1 0.2371259217718042 0.7490234231681262 0 0 0 0.7089867226682424 0 0.3857192143195502 0.9497111601864925 1 0 0 0 0.1882732113529739 0:0.020693835 1:0.09825203 2:-0.044877503 3:0.036513664 4:0.09211258 5:-0.052395076 6:0.007838085 7:0.02488983 8:-0.0043630386 9:0.0037086396 10:0.021162637 11:-0.056782015 12:-0.0023552421 13:-0.044072375 14:0.030404534 15:0.05271739 16:0.031689085 17:0.016868606 18:0.0021465432 19:-0.02678144 20:0.024753133 21:-0.02335925 22:-0.008854676 23:0.012187205 24:-0.027464332 25:0.036319975 26:0.054175198 27:-0.053131845 28:0.04816539 29:0.061233252 30:-0.06877275 31:-0.021011312 32:-0.025123976 33:-0.023747921 34:0.026978774 35:-0.064916305 36:0.034719538 37:-0.06451496 38:-0.046275567 39:0.007479278 40:-0.07158094 41:0.02057256 42:0.002894792 43:0.03337275 44:-0.011610046 45:0.024436431 46:-0.023233838 47:0.10101829 48:-0.10839186 49:0.080734074 50:-0.019682722 51:-0.04739519 52:-0.027352283 53:-0.073264524 54:-0.016052853 55:-0.024991592 56:0.017730765 57:-0.042770054 58:0.01251649 59:0.050142452 60:0.029032538 61:0.06425377 62:-0.00205624 63:-0.031034559 64:-0.0742291 65:-0.052125435 66:-0.04297942 67:0.009970914 68:0.01318242 69:-0.01738056 70:-0.0016241375 71:0.026247434 72:-0.055810258 73:0.01699799 74:0.033355378 75:-0.01355359 76:-0.018630106 77:-0.008663966 78:0.03278445 79:0.014943392 80:0.05124166 81:-0.025814408 82:-0.02717583 83:0.0010332258 84:-0.04053319 85:-0.06763258 86:-0.013842933 87:0.07037672 88:0.0243361 89:-0.070969336 90:-0.012027649 91:-0.029224358 92:0.021300586 93:-0.03181695 94:0.07700781 95:0.010309808 96:-0.039820645 97:-0.005748144 98:-0.053228687 99:0.01950745 100:0.005776122 101:-0.015040034 102:-0.06726146 103:0.09577244 104:-0.058449328 105:-0.009859168 106:-0.020246474 107:-0.040736426 108:0.026500255 109:-0.036071956 110:0.052581143 111:-0.008490453 112:-0.012141699 113:-0.042728562 114:0.029780973 115:-0.021871362 116:0.03503025 117:0.014505008 118:-0.008574413 119:0.04245248 120:0.070076175 121:0.06282335 122:0.021474257 123:-0.09934852 124:-0.0023226282 125:-0.041656785 126:-0.0046983347 127:-0.04017667 128:0.020409117 129:0.06856276 130:-0.021372924 131:-0.018890802 132:0.06681492 133:-0.060742084 134:-0.048652418 135:-0.0025687946 136:-0.0062273215 137:-0.02757593 138:0.038684644 139:0.08756902 140:0.041609872 141:0.014411499 142:-0.07386458 143:-0.029787686 144:0.055430792 145:0.013155105 146:0.03772061 147:-0.016731063 148:-0.0052247266 149:-0.022541124 150:0.0074291886 151:-0.0028590763 152:-0.022559518 153:0.0009995307 154:0.025539339 155:-0.07224619 156:-0.11394193 157:0.036999155 158:0.01337467 159:-0.042824034 160:0.055955674 161:-0.02493418 162:-0.0245155 163:0.09026176 164:0.019983051 165:0.039803084 166:0.01276402 167:0.06352922 168:-0.084388055 169:-0.013214023 170:0.052727323 171:0.012943398 172:0.039794654 173:0.010051074 174:0.050741278 175:0.03715119 176:0.014261582 177:-0.0032038505 178:0.00044034168 179:-0.012395646 180:-0.020283783 181:-0.050104752 182:-0.025440376 183:-0.042903237 184:0.012714104 185:0.01570849 186:-0.009342325 187:0.01239104 188:0.012204174 189:0.044118885 190:-0.014650225 191:0.020217268 192:0.15658118 193:-0.06382759 194:0.05882584 195:-0.049745925 196:-0.012947419 197:0.004442741 198:-0.050575778 199:-0.032646056 200:0.02428321 201:-0.080980845 202:0.082488485 203:-0.041854694 204:0.01975705 205:0.0672083 206:0.059698492 207:-0.022937829 208:-0.050045963 209:0.008256671 210:0.017113933 211:-0.024401287 212:-0.0038087352 213:0.007209772 214:0.059859168 215:0.0075887414 216:-0.00041238876 217:-0.009673391 218:-0.02397247 219:0.018659191 220:-0.050324187 221:-0.06470125 222:-0.055613935 223:-0.0007288431 224:0.028826777 225:0.0023500496 226:0.020150738 227:0.0023403799 228:-0.08176753 229:0.023053378 230:-0.0297993 231:0.034184135 232:-0.04964626 233:-0.0942425 234:-0.026635943 235:0.03771684 236:-0.007083141 237:0.041180126 238:0.021048777 239:-0.022358306 240:0.011510739 241:-0.0058755963 242:0.004053369 243:-0.012635609 244:0.05590179 245:0.09755238 246:0.023790702 247:0.02505378 248:0.041980967 249:0.034829263 250:-0.06664189 251:0.032504745 252:0.013681011 253:-0.02683976 254:-0.07121536 255:-0.03665495 256:-0.05466955 257:0.090514615 258:0.019112146 259:-0.0030778362 260:-0.04142856 261:-0.047645874 262:0.040093355 263:-0.037678957 264:-0.007883706 265:-0.044279043 266:-0.009499111 267:0.008367174 268:-0.03212696 269:-0.09113206 270:0.07454421 271:0.00067593105 272:0.076913506 273:0.019952163 274:-0.056542717 275:-0.0037591464 276:0.038662825 277:0.08334036 278:4.108375e-05 279:-0.019856155 280:-0.019693455 281:0.025440587 282:0.027917696 283:-0.047172897 284:-0.035904612 285:-0.031619307 286:0.06710318 287:-0.042460237 288:-0.059522945 289:-0.029300569 290:-0.0730351 291:-0.09194295 292:-0.067824 293:0.07123326 294:0.00051089394 295:-0.05198155 296:-0.024449464 297:-0.045936335 298:0.050911546 299:-0.02480577 300:0.046518084 301:-0.05646537 302:-0.0003576248 303:-0.021754295 304:-0.0059903692 305:0.08021071 306:0.027731992 307:-0.02223827 308:-0.015700327 309:0.08135285 310:-0.024988217 311:0.035365634 312:0.031263426 313:0.029201463 314:0.047710776 315:0.00760914 316:-0.047947753 317:-0.00013122571 318:0.001050387 319:-0.08022868 320:0.0067879744 321:0.017713122 322:-0.083743975 323:0.023964262 324:-0.04937121 325:0.040356245 326:0.014339359 327:0.11840584 328:-0.0304632 329:0.015144254 330:0.05695537 331:0.032389633 332:-0.088044554 333:0.059669096 334:-0.08000697 335:-0.035275754 336:-0.02300797 337:-0.03825794 338:-0.008255537 339:0.04077539 340:0.025162157 341:0.02194646 342:0.023380272 343:0.06313842 344:0.014987875 345:-0.014755143 346:-0.039149687 347:0.045342024 348:0.0037020433 349:-0.03784124 350:-0.055830173 351:0.01887471 352:0.011278604 353:-0.014220608 354:-0.09606733 355:0.03855084 356:0.08202102 357:0.015227459 358:0.036036145 359:-0.076311745 360:-0.017496524 361:0.024787309 362:-0.07506039 363:-0.03331838 364:-0.06545647 365:0.06391542 366:-0.03768565 367:-0.032930065 368:-0.0049773264 369:0.019497849 370:-0.029517163 371:0.013554559 372:-0.018666131 373:-0.00020207718 374:0.0070541883 375:0.08393819 376:0.024546623 377:-0.031615384 378:-0.045672692 379:-0.018873652 380:-0.004949519 381:-0.07589643 382:-0.0046545267 383:0.03787131 384:0.06845387 385:0.0001097338 386:0.0034285083 387:0.0087445285 388:-0.056004755 389:-0.053916823 390:0.041840404 391:0.048773684 392:-0.0338551 393:-0.0013598889 394:-3.5542976e-06 395:-0.03154557 396:0.047076702 397:0.095270686 398:0.017125037 399:-0.03613003 400:-0.032446973 401:0.03398619 402:0.020472087 403:0.09413081 404:-0.020168822 405:-0.013190209 406:-0.050908983 407:-0.05394173 408:0.05069124 409:0.060960777 410:0.032699533 411:0.030649705 412:-0.06109981 413:-0.0044850903 414:0.0021937366 415:-0.00044761854 416:0.027739944 417:0.058508925 418:0.051814325 419:0.0023760814 420:-0.014545666 421:-0.0428496 422:0.0062546073 423:-0.049030494 424:-0.03480724 425:0.08770312 426:0.048254266 427:0.009043966 428:0.0009974786 429:0.07449928 430:-0.044862248 431:-0.0028464722 432:-0.070752926 433:-0.03358645 434:0.015291627 435:0.035184093 436:-0.04747518 437:-0.027689777 438:0.03522076 439:0.063061066 440:-0.055997998 441:0.0010266822 442:-0.04549308 443:0.03172629 444:0.0039067697 445:0.03111948 446:-0.027577348 447:0.03568579 448:-0.009602817 449:-0.07603472 450:-0.01779842 451:-0.022457907 452:-0.010674123 453:-0.05570242 454:-0.005955643 455:-0.0052331476 456:-0.017480869 457:0.03822516 458:0.001362445 459:0.058309868 460:0.074128725 461:0.06157196 462:-0.016148308 463:0.036345687 464:0.036673423 465:-0.011973184 466:0.032182936 467:-0.028210727 468:0.016088462 469:-0.014037274 470:0.040278494 471:-0.0182056 472:0.039765973 473:-0.048634566 474:-0.07096226 475:0.064789556 476:0.0457919 477:0.051742494 478:-0.011259595 479:0.013795809 480:-0.016253956 481:0.006225231 482:0.038748886 483:0.05602744 484:-0.030409386 485:0.061197095 486:-0.12793691 487:0.03791416 488:0.007367199 489:-0.014179061 490:0.017614694 491:-0.04174502 492:-0.0511764 493:-0.0893828 494:0.09487434 495:-0.026088933 496:0.024934357 497:-0.0053612334 498:0.01187732 499:-0.06687732 500:-0.011247777 501:-0.024664665 502:0.04726392 503:-0.080983676 504:-0.029617913 505:0.1032774 506:-0.007894091 507:0.049076576 508:-0.019140275 509:-0.02327734 510:0.027974712 511:-0.074865215 
1 0.706971809869759 0.6528701607764648 1 1 1 1 0.3660203552868665 0.8741477916121115 0.9108572183233669 0.8699127441018739 0.8486167691867108 0.7956288196795601 0.9960878923195704 1 0.3620353993416107 0.8978960973069996 0 0.9970041368914225 0:0.020693835 1:0.09825203 2:-0.044877503 3:0.036513664 4:0.09211258 5:-0.052395076 6:0.007838085 7:0.02488983 8:-0.0043630386 9:0.0037086396 10:0.021162637 11:-0.056782015 12:-0.0023552421 13:-0.044072375 14:0.030404534 15:0.05271739 16:0.031689085 17:0.016868606 18:0.0021465432 19:-0.02678144 20:0.024753133 21:-0.02335925 22:-0.008854676 23:0.012187205 24:-0.027464332 25:0.036319975 26:0.054175198 27:-0.053131845 28:0.04816539 29:0.061233252 30:-0.06877275 31:-0.021011312 32:-0.025123976 33:-0.023747921 34:0.026978774 35:-0.064916305 36:0.034719538 37:-0.06451496 38:-0.046275567 39:0.007479278 40:-0.07158094 41:0.02057256 42:0.002894792 43:0.03337275 44:-0.011610046 45:0.024436431 46:-0.023233838 47:0.10101829 48:-0.10839186 49:0.080734074 50:-0.019682722 51:-0.04739519 52:-0.027352283 53:-0.073264524 54:-0.016052853 55:-0.024991592 56:0.017730765 57:-0.042770054 58:0.01251649 59:0.050142452 60:0.029032538 61:0.06425377 62:-0.00205624 63:-0.031034559 64:-0.0742291 65:-0.052125435 66:-0.04297942 67:0.009970914 68:0.01318242 69:-0.01738056 70:-0.0016241375 71:0.026247434 72:-0.055810258 73:0.01699799 74:0.033355378 75:-0.01355359 76:-0.018630106 77:-0.008663966 78:0.03278445 79:0.014943392 80:0.05124166 81:-0.025814408 82:-0.02717583 83:0.0010332258 84:-0.04053319 85:-0.06763258 86:-0.013842933 87:0.07037672 88:0.0243361 89:-0.070969336 90:-0.012027649 91:-0.029224358 92:0.021300586 93:-0.03181695 94:0.07700781 95:0.010309808 96:-0.039820645 97:-0.005748144 98:-0.053228687 99:0.01950745 100:0.005776122 101:-0.015040034 102:-0.06726146 103:0.09577244 104:-0.058449328 105:-0.009859168 106:-0.020246474 107:-0.040736426 108:0.026500255 109:-0.036071956 110:0.052581143 111:-0.008490453 112:-0.012141699 113:-0.042728562 114:0.029780973 115:-0.021871362 116:0.03503025 117:0.014505008 118:-0.008574413 119:0.04245248 120:0.070076175 121:0.06282335 122:0.021474257 123:-0.09934852 124:-0.0023226282 125:-0.041656785 126:-0.0046983347 127:-0.04017667 128:0.020409117 129:0.06856276 130:-0.021372924 131:-0.018890802 132:0.06681492 133:-0.060742084 134:-0.048652418 135:-0.0025687946 136:-0.0062273215 137:-0.02757593 138:0.038684644 139:0.08756902 140:0.041609872 141:0.014411499 142:-0.07386458 143:-0.029787686 144:0.055430792 145:0.013155105 146:0.03772061 147:-0.016731063 148:-0.0052247266 149:-0.022541124 150:0.0074291886 151:-0.0028590763 152:-0.022559518 153:0.0009995307 154:0.025539339 155:-0.07224619 156:-0.11394193 157:0.036999155 158:0.01337467 159:-0.042824034 160:0.055955674 161:-0.02493418 162:-0.0245155 163:0.09026176 164:0.019983051 165:0.039803084 166:0.01276402 167:0.06352922 168:-0.084388055 169:-0.013214023 170:0.052727323 171:0.012943398 172:0.039794654 173:0.010051074 174:0.050741278 175:0.03715119 176:0.014261582 177:-0.0032038505 178:0.00044034168 179:-0.012395646 180:-0.020283783 181:-0.050104752 182:-0.025440376 183:-0.042903237 184:0.012714104 185:0.01570849 186:-0.009342325 187:0.01239104 188:0.012204174 189:0.044118885 190:-0.014650225 191:0.020217268 192:0.15658118 193:-0.06382759 194:0.05882584 195:-0.049745925 196:-0.012947419 197:0.004442741 198:-0.050575778 199:-0.032646056 200:0.02428321 201:-0.080980845 202:0.082488485 203:-0.041854694 204:0.01975705 205:0.0672083 206:0.059698492 207:-0.022937829 208:-0.050045963 209:0.008256671 210:0.017113933 211:-0.024401287 212:-0.0038087352 213:0.007209772 214:0.059859168 215:0.0075887414 216:-0.00041238876 217:-0.009673391 218:-0.02397247 219:0.018659191 220:-0.050324187 221:-0.06470125 222:-0.055613935 223:-0.0007288431 224:0.028826777 225:0.0023500496 226:0.020150738 227:0.0023403799 228:-0.08176753 229:0.023053378 230:-0.0297993 231:0.034184135 232:-0.04964626 233:-0.0942425 234:-0.026635943 235:0.03771684 236:-0.007083141 237:0.041180126 238:0.021048777 239:-0.022358306 240:0.011510739 241:-0.0058755963 242:0.004053369 243:-0.012635609 244:0.05590179 245:0.09755238 246:0.023790702 247:0.02505378 248:0.041980967 249:0.034829263 250:-0.06664189 251:0.032504745 252:0.013681011 253:-0.02683976 254:-0.07121536 255:-0.03665495 256:-0.05466955 257:0.090514615 258:0.019112146 259:-0.0030778362 260:-0.04142856 261:-0.047645874 262:0.040093355 263:-0.037678957 264:-0.007883706 265:-0.044279043 266:-0.009499111 267:0.008367174 268:-0.03212696 269:-0.09113206 270:0.07454421 271:0.00067593105 272:0.076913506 273:0.019952163 274:-0.056542717 275:-0.0037591464 276:0.038662825 277:0.08334036 278:4.108375e-05 279:-0.019856155 280:-0.019693455 281:0.025440587 282:0.027917696 283:-0.047172897 284:-0.035904612 285:-0.031619307 286:0.06710318 287:-0.042460237 288:-0.059522945 289:-0.029300569 290:-0.0730351 291:-0.09194295 292:-0.067824 293:0.07123326 294:0.00051089394 295:-0.05198155 296:-0.024449464 297:-0.045936335 298:0.050911546 299:-0.02480577 300:0.046518084 301:-0.05646537 302:-0.0003576248 303:-0.021754295 304:-0.0059903692 305:0.08021071 306:0.027731992 307:-0.02223827 308:-0.015700327 309:0.08135285 310:-0.024988217 311:0.035365634 312:0.031263426 313:0.029201463 314:0.047710776 315:0.00760914 316:-0.047947753 317:-0.00013122571 318:0.001050387 319:-0.08022868 320:0.0067879744 321:0.017713122 322:-0.083743975 323:0.023964262 324:-0.04937121 325:0.040356245 326:0.014339359 327:0.11840584 328:-0.0304632 329:0.015144254 330:0.05695537 331:0.032389633 332:-0.088044554 333:0.059669096 334:-0.08000697 335:-0.035275754 336:-0.02300797 337:-0.03825794 338:-0.008255537 339:0.04077539 340:0.025162157 341:0.02194646 342:0.023380272 343:0.06313842 344:0.014987875 345:-0.014755143 346:-0.039149687 347:0.045342024 348:0.0037020433 349:-0.03784124 350:-0.055830173 351:0.01887471 352:0.011278604 353:-0.014220608 354:-0.09606733 355:0.03855084 356:0.08202102 357:0.015227459 358:0.036036145 359:-0.076311745 360:-0.017496524 361:0.024787309 362:-0.07506039 363:-0.03331838 364:-0.06545647 365:0.06391542 366:-0.03768565 367:-0.032930065 368:-0.0049773264 369:0.019497849 370:-0.029517163 371:0.013554559 372:-0.018666131 373:-0.00020207718 374:0.0070541883 375:0.08393819 376:0.024546623 377:-0.031615384 378:-0.045672692 379:-0.018873652 380:-0.004949519 381:-0.07589643 382:-0.0046545267 383:0.03787131 384:0.06845387 385:0.0001097338 386:0.0034285083 387:0.0087445285 388:-0.056004755 389:-0.053916823 390:0.041840404 391:0.048773684 392:-0.0338551 393:-0.0013598889 394:-3.5542976e-06 395:-0.03154557 396:0.047076702 397:0.095270686 398:0.017125037 399:-0.03613003 400:-0.032446973 401:0.03398619 402:0.020472087 403:0.09413081 404:-0.020168822 405:-0.013190209 406:-0.050908983 407:-0.05394173 408:0.05069124 409:0.060960777 410:0.032699533 411:0.030649705 412:-0.06109981 413:-0.0044850903 414:0.0021937366 415:-0.00044761854 416:0.027739944 417:0.058508925 418:0.051814325 419:0.0023760814 420:-0.014545666 421:-0.0428496 422:0.0062546073 423:-0.049030494 424:-0.03480724 425:0.08770312 426:0.048254266 427:0.009043966 428:0.0009974786 429:0.07449928 430:-0.044862248 431:-0.0028464722 432:-0.070752926 433:-0.03358645 434:0.015291627 435:0.035184093 436:-0.04747518 437:-0.027689777 438:0.03522076 439:0.063061066 440:-0.055997998 441:0.0010266822 442:-0.04549308 443:0.03172629 444:0.0039067697 445:0.03111948 446:-0.027577348 447:0.03568579 448:-0.009602817 449:-0.07603472 450:-0.01779842 451:-0.022457907 452:-0.010674123 453:-0.05570242 454:-0.005955643 455:-0.0052331476 456:-0.017480869 457:0.03822516 458:0.001362445 459:0.058309868 460:0.074128725 461:0.06157196 462:-0.016148308 463:0.036345687 464:0.036673423 465:-0.011973184 466:0.032182936 467:-0.028210727 468:0.016088462 469:-0.014037274 470:0.040278494 471:-0.0182056 472:0.039765973 473:-0.048634566 474:-0.07096226 475:0.064789556 476:0.0457919 477:0.051742494 478:-0.011259595 479:0.013795809 480:-0.016253956 481:0.006225231 482:0.038748886 483:0.05602744 484:-0.030409386 485:0.061197095 486:-0.12793691 487:0.03791416 488:0.007367199 489:-0.014179061 490:0.017614694 491:-0.04174502 492:-0.0511764 493:-0.0893828 494:0.09487434 495:-0.026088933 496:0.024934357 497:-0.0053612334 498:0.01187732 499:-0.06687732 500:-0.011247777 501:-0.024664665 502:0.04726392 503:-0.080983676 504:-0.029617913 505:0.1032774 506:-0.007894091 507:0.049076576 508:-0.019140275 509:-0.02327734 510:0.027974712 511:-0.074865215 
